{"learner":{"attributes":{"scikit_learn":"{\"_estimator_type\": \"classifier\"}"},"feature_names":[],"feature_types":[],"gradient_booster":{"model":{"cats":{"enc":[],"feature_segments":[],"sorted_idx":[]},"gbtree_model_param":{"num_parallel_tree":"1","num_trees":"100"},"iteration_indptr":[0,1,2,3,4,5,6,7,8,9,10,11,12,13,14,15,16,17,18,19,20,21,22,23,24,25,26,27,28,29,30,31,32,33,34,35,36,37,38,39,40,41,42,43,44,45,46,47,48,49,50,51,52,53,54,55,56,57,58,59,60,61,62,63,64,65,66,67,68,69,70,71,72,73,74,75,76,77,78,79,80,81,82,83,84,85,86,87,88,89,90,91,92,93,94,95,96,97,98,99,100],"tree_info":[0,0,0,0,0,0,0,0,0,0,0,0,0,0,0,0,0,0,0,0,0,0,0,0,0,0,0,0,0,0,0,0,0,0,0,0,0,0,0,0,0,0,0,0,0,0,0,0,0,0,0,0,0,0,0,0,0,0,0,0,0,0,0,0,0,0,0,0,0,0,0,0,0,0,0,0,0,0,0,0,0,0,0,0,0,0,0,0,0,0,0,0,0,0,0,0,0,0,0,0],"trees":[{"base_weights":[2.8884387E-2,6.1536473E-1,-4.903235E-2,9.25537E-1,4.0656576E-1,-1.1086791E-1,3.3115435E-1,5.101972E-1,1.2416699E-1,-2.8408378E-1,8.101333E-1,-6.1361797E-2,-7.856306E-1,-5.981046E-2,3.908915E-1,8.12481E-1,-4.4949256E-2,-8.395792E-1,6.895612E-1,9.074313E-1,-4.909128E-3,-1.3601322E-1,2.7220348E-1,-1.1065388E0,-4.7427607E-1,8.108158E-1,2.1248654E-1,1.0489006E-1,1.2994197E-2,-4.6601214E-2,-1.250295E-1,8.579885E-2,1.7697712E-2,6.821223E-2,1.3718246E-1,-7.829235E-3,-5.6163233E-2,5.1663507E-2,-2.1436417E-2,-1.306029E-1,-3.8825687E-2,-6.925979E-3,-9.537009E-2,1.2802677E-1,5.57E-2,-4.693174E-2,3.9447617E-2],"categories":[],"categories_nodes":[],"categories_segments":[],"categories_sizes":[],"default_left":[0,0,0,0,0,0,0,0,0,0,0,0,0,0,0,0,0,0,0,0,0,0,0,0,0,0,0,0,0,0,0,0,0,0,0,0,0,0,0,0,0,0,0,0,0,0,0],"id":0,"left_children":[1,3,5,7,9,11,13,15,-1,17,19,21,23,-1,25,27,-1,29,31,33,-1,35,37,39,41,43,45,-1,-1,-1,-1,-1,-1,-1,-1,-1,-1,-1,-1,-1,-1,-1,-1,-1,-1,-1,-1],"loss_changes":[1.4298001E1,1.9999046E0,6.5378857E0,1.201889E0,6.839243E0,7.9222794E0,2.3952107E0,2.6101975E0,0E0,5.7093887E0,1.3174696E0,5.599385E0,1.0962887E0,0E0,2.6138186E0,8.7082434E-1,0E0,4.1323233E-1,1.9305587E-1,5.0070953E-1,0E0,4.456605E0,5.008718E0,5.302839E-1,1.872777E0,5.658593E-1,3.591876E0,0E0,0E0,0E0,0E0,0E0,0E0,0E0,0E0,0E0,0E0,0E0,0E0,0E0,0E0,0E0,0E0,0E0,0E0,0E0,0E0],"parents":[2147483647,0,0,1,1,2,2,3,3,4,4,5,5,6,6,7,7,9,9,10,10,11,11,12,12,14,14,15,15,17,17,18,18,19,19,21,21,22,22,23,23,24,24,25,25,26,26],"right_children":[2,4,6,8,10,12,14,16,-1,18,20,22,24,-1,26,28,-1,30,32,34,-1,36,38,40,42,44,46,-1,-1,-1,-1,-1,-1,-1,-1,-1,-1,-1,-1,-1,-1,-1,-1,-1,-1,-1,-1],"split_conditions":[-2.7635846E0,-3.770373E-1,-1.5410669E-1,-4.4499457E-1,-3.091421E-1,-1.7350207E-1,-2.0485847E0,-4.593374E-1,1.2416699E-1,-3.9102767E0,-2.885845E0,-2.1342659E-1,-1.6616182E-1,-5.981046E-2,6.646244E-2,-4.8790226E0,-4.4949256E-2,-4.455044E0,-3.4544075E-1,-3.1505063E0,-4.909128E-3,-2.3177408E-1,1.2791332E0,1.064166E0,1.1782047E0,-1.4042611E0,4.4652188E-1,1.0489006E-1,1.2994197E-2,-4.6601214E-2,-1.250295E-1,8.579885E-2,1.7697712E-2,6.821223E-2,1.3718246E-1,-7.829235E-3,-5.6163233E-2,5.1663507E-2,-2.1436417E-2,-1.306029E-1,-3.8825687E-2,-6.925979E-3,-9.537009E-2,1.2802677E-1,5.57E-2,-4.693174E-2,3.9447617E-2],"split_indices":[0,2,2,2,2,2,0,2,0,0,0,2,2,0,0,0,0,0,2,0,0,2,0,0,0,0,0,0,0,0,0,0,0,0,0,0,0,0,0,0,0,0,0,0,0,0,0],"split_type":[0,0,0,0,0,0,0,0,0,0,0,0,0,0,0,0,0,0,0,0,0,0,0,0,0,0,0,0,0,0,0,0,0,0,0,0,0,0,0,0,0,0,0,0,0,0,0],"sum_hessian":[3.112293E2,3.569029E1,2.75539E2,1.2978287E1,2.2712002E1,2.3760248E2,3.793653E1,6.7387257E0,6.239561E0,8.485803E0,1.4226199E1,2.2237796E2,1.5224529E1,1.7470771E0,3.6189453E1,5.2412314E0,1.4974947E0,5.4908137E0,2.9949894E0,1.2728704E1,1.4974947E0,1.8219518E2,4.0182774E1,6.239561E0,8.984968E0,9.733715E0,2.6455738E1,3.4941542E0,1.7470771E0,3.993319E0,1.4974947E0,1.7470771E0,1.2479122E0,1.023288E1,2.4958243E0,1.6147984E2,2.0715342E1,2.670532E1,1.3477451E1,4.2429013E0,1.9966595E0,5.4908137E0,3.4941542E0,1.9966595E0,7.737056E0,5.2412314E0,2.1214508E1],"tree_param":{"num_deleted":"0","num_feature":"3","num_nodes":"47","size_leaf_vector":"1"}},{"base_weights":[-3.6414526E-2,4.812432E-1,-1.03910245E-1,7.7167577E-1,2.2433993E-1,-1.841539E-1,3.9013806E-1,8.3032864E-1,2.303267E-2,-7.837267E-2,1.11976884E-1,-1.4916344E-1,-7.096853E-1,4.9192858E-1,-4.5903947E-2,1.0499304E-1,5.3573066E-1,-4.1485783E-1,4.9103194E-1,-7.941609E-2,-4.6176663E-1,-1.4240183E-1,-3.0203456E-1,2.0681477E-1,6.566418E-1,1.1771846E-1,-5.5554944E-1,-6.166641E-2,9.423907E-2,1.952866E-2,-6.7674674E-2,1.23814955E-1,-1.1695376E-2,-6.475672E-2,-4.2106314E-3,-5.6416918E-2,1.8946968E-2,-4.888152E-2,3.2774087E-2,3.6080625E-2,-6.8614185E-2,9.220495E-2,3.7983857E-2,-8.3462656E-2,-2.1082979E-2],"categories":[],"categories_nodes":[],"categories_segments":[],"categories_sizes":[],"default_left":[0,0,0,0,0,0,0,0,0,0,0,0,0,0,0,0,0,0,0,0,0,0,0,0,0,0,0,0,0,0,0,0,0,0,0,0,0,0,0,0,0,0,0,0,0],"id":1,"left_children":[1,3,5,7,9,11,13,15,-1,17,-1,19,21,23,25,-1,27,29,31,33,35,-1,37,39,41,-1,43,-1,-1,-1,-1,-1,-1,-1,-1,-1,-1,-1,-1,-1,-1,-1,-1,-1,-1],"loss_changes":[1.0839001E1,2.497695E0,1.0934114E1,3.2920837E-1,5.6184254E0,4.2409973E0,1.7360516E0,3.694582E-1,0E0,3.304405E0,0E0,4.823238E0,3.7894807E0,1.3380408E0,5.7784824E0,0E0,4.421113E0,1.8442008E0,3.083346E0,3.861339E0,2.8046217E0,0E0,1.3947062E0,2.0285034E0,1.0773706E0,0E0,4.4766092E-1,0E0,0E0,0E0,0E0,0E0,0E0,0E0,0E0,0E0,0E0,0E0,0E0,0E0,0E0,0E0,0E0,0E0,0E0],"parents":[2147483647,0,0,1,1,2,2,3,3,4,4,5,5,6,6,7,7,9,9,11,11,12,12,13,13,14,14,16,16,17,17,18,18,19,19,20,20,22,22,23,23,24,24,26,26],"right_children":[2,4,6,8,10,12,14,16,-1,18,-1,20,22,24,26,-1,28,30,32,34,36,-1,38,40,42,-1,44,-1,-1,-1,-1,-1,-1,-1,-1,-1,-1,-1,-1,-1,-1,-1,-1,-1,-1],"split_conditions":[-2.7635846E0,-3.6481965E-1,-1.5410669E-1,-3.048272E0,-3.048272E0,-1.7267029E-1,-6.3685276E-2,-4.5050362E-1,2.303267E-2,-2.7143615E-1,1.11976884E-1,2.4263415E0,-3.9025548E-1,4.1821298E-1,3.651602E-2,1.0499304E-1,-4.321065E-1,-4.8790226E0,-2.4264301E-1,-2.2311137E0,-2.0166095E-1,-1.4240183E-1,-1.5720528E-1,3.2657427E-1,1.5509931E0,1.1771846E-1,1.4104687E0,-6.166641E-2,9.423907E-2,1.952866E-2,-6.7674674E-2,1.23814955E-1,-1.1695376E-2,-6.475672E-2,-4.2106314E-3,-5.6416918E-2,1.8946968E-2,-4.888152E-2,3.2774087E-2,3.6080625E-2,-6.8614185E-2,9.220495E-2,3.7983857E-2,-8.3462656E-2,-2.1082979E-2],"split_indices":[0,2,2,0,0,2,2,2,0,2,0,0,0,0,0,0,2,0,2,0,2,0,2,0,0,0,0,0,0,0,0,0,0,0,0,0,0,0,0,0,0,0,0,0,0],"split_type":[0,0,0,0,0,0,0,0,0,0,0,0,0,0,0,0,0,0,0,0,0,0,0,0,0,0,0,0,0,0,0,0,0,0,0,0,0,0,0,0,0,0,0,0,0],"sum_hessian":[3.0778915E2,3.4795494E1,2.7299365E2,1.5391472E1,1.9404022E1,2.353889E2,3.7604763E1,1.3405255E1,1.9862167E0,1.5183497E1,4.2205243E0,2.218985E2,1.3490406E1,3.038375E1,7.221012E0,6.2112613E0,7.1939936E0,9.714317E0,5.4691806E0,1.8244565E2,3.9452843E1,3.9956076E0,9.494799E0,1.1951557E1,1.8432194E1,1.7386495E0,5.4823627E0,1.741764E0,5.45223E0,2.9937778E0,6.720539E0,1.9887929E0,3.4803877E0,1.0234762E1,1.7221089E2,3.420762E1,5.245223E0,7.4955673E0,1.999231E0,1.0701937E1,1.2496206E0,8.219762E0,1.0212432E1,2.2442746E0,3.2380881E0],"tree_param":{"num_deleted":"0","num_feature":"3","num_nodes":"45","size_leaf_vector":"1"}},{"base_weights":[-1.7896291E-3,4.022906E-1,-2.1318916E-2,7.148175E-2,7.3482925E-1,-1.4613484E-3,-4.8705113E-1,6.7354165E-2,-2.662776E-1,9.660943E-3,8.553946E-1,-1.0105732E-2,8.7958924E-2,-1.2669018E-1,-1.4153068E-1,-7.477429E-2,1.6179535E-1,4.2570975E-1,1.1693789E-1,-3.008792E-2,2.981138E-1,-6.064991E-1,2.740163E-1,5.68119E-2,-2.2800786E-2,8.515795E-2,-2.848411E-2,1.1685792E-3,-2.1797966E-2,6.0451638E-2,-2.3566645E-2,-1.9519424E-2,-8.996966E-2,6.2038183E-2,-2.1040795E-2],"categories":[],"categories_nodes":[],"categories_segments":[],"categories_sizes":[],"default_left":[0,0,0,0,0,0,0,0,0,0,0,0,0,0,0,0,0,0,0,0,0,0,0,0,0,0,0,0,0,0,0,0,0,0,0],"id":2,"left_children":[1,3,5,7,9,11,13,-1,15,-1,17,19,-1,21,-1,-1,23,25,-1,27,29,31,33,-1,-1,-1,-1,-1,-1,-1,-1,-1,-1,-1,-1],"loss_changes":[2.422175E0,1.5041494E0,2.7062786E0,1.8471512E0,4.5207953E-1,2.154618E0,3.8236146E0,0E0,1.3515569E0,0E0,2.7357864E-1,1.7333739E0,0E0,2.03469E0,0E0,0E0,7.6034254E-1,1.4488881E0,0E0,2.0734692E0,2.9454596E0,3.9526248E-1,1.1346725E0,0E0,0E0,0E0,0E0,0E0,0E0,0E0,0E0,0E0,0E0,0E0,0E0],"parents":[2147483647,0,0,1,1,2,2,3,3,4,4,5,5,6,6,8,8,10,10,11,11,13,13,16,16,17,17,19,19,20,20,21,21,22,22],"right_children":[2,4,6,8,10,12,14,-1,16,-1,18,20,-1,22,-1,-1,24,26,-1,28,30,32,34,-1,-1,-1,-1,-1,-1,-1,-1,-1,-1,-1,-1],"split_conditions":[-4.593374E-1,3.7445025E0,5.627823E0,2.1046782E0,-5.0933605E-1,5.4365926E0,-2.761285E-1,6.7354165E-2,2.8562462E0,9.660943E-3,5.504067E0,-1.0576717E-1,8.7958924E-2,-3.9457327E-1,-1.4153068E-1,-7.477429E-2,3.2472212E0,5.1796274E0,1.1693789E-1,-1.8654427E-1,-6.3685276E-2,1.0371631E1,-3.3274734E-1,5.68119E-2,-2.2800786E-2,8.515795E-2,-2.848411E-2,1.1685792E-3,-2.1797966E-2,6.0451638E-2,-2.3566645E-2,-1.9519424E-2,-8.996966E-2,6.2038183E-2,-2.1040795E-2],"split_indices":[2,1,1,1,2,1,2,0,1,0,1,2,0,2,0,0,1,1,0,2,2,1,2,0,0,0,0,0,0,0,0,0,0,0,0],"split_type":[0,0,0,0,0,0,0,0,0,0,0,0,0,0,0,0,0,0,0,0,0,0,0,0,0,0,0,0,0,0,0,0,0,0,0],"sum_hessian":[3.0485184E2,1.3150737E1,2.9170108E2,7.2015777E0,5.949159E0,2.8073447E2,1.0966623E1,2.2308736E0,4.970704E0,1.2314916E0,4.7176676E0,2.7898575E2,1.7487248E0,8.718478E0,2.2481453E0,1.9879913E0,2.9827127E0,2.986499E0,1.7311686E0,2.6284744E2,1.6138288E1,3.733902E0,4.984576E0,1.2364302E0,1.7462827E0,1.7432196E0,1.2432795E0,2.1580551E2,4.704194E1,1.0168695E1,5.969593E0,2.247207E0,1.486695E0,2.7428021E0,2.241774E0],"tree_param":{"num_deleted":"0","num_feature":"3","num_nodes":"35","size_leaf_vector":"1"}},{"base_weights":[-2.4172773E-3,-1.1076849E-1,9.101466E-3,2.073746E-1,-2.8195657E-2,9.113726E-2,9.0381455E-1,-8.5109156E-1,-7.4075083E-3,2.362529E-1,-3.0166054E-1,3.3704292E-2,1.1919663E-1,-1.2441267E-1,2.833186E-2,-2.0082371E-1,3.943768E-2,-2.2207538E-2,4.0746015E-2,2.8019428E-2,-7.030796E-2,-1.2123826E-3,-7.4405715E-2,2.6918544E-2,-8.475583E-3],"categories":[],"categories_nodes":[],"categories_segments":[],"categories_sizes":[],"default_left":[0,0,0,0,0,0,0,0,0,0,0,0,0,0,0,0,0,0,0,0,0,0,0,0,0],"id":3,"left_children":[1,-1,3,5,7,9,11,13,15,17,19,-1,-1,-1,-1,21,23,-1,-1,-1,-1,-1,-1,-1,-1],"loss_changes":[4.0074415E0,0E0,2.3111143E0,3.9227731E0,4.4970994E0,2.551445E0,7.356434E-1,3.2406979E0,2.3435605E0,2.6276784E0,3.0412436E0,0E0,0E0,0E0,0E0,5.1599407E0,5.96783E0,0E0,0E0,0E0,0E0,0E0,0E0,0E0,0E0],"parents":[2147483647,0,0,2,2,3,3,4,4,5,5,6,6,7,7,8,8,9,9,10,10,15,15,16,16],"right_children":[2,-1,4,6,8,10,12,14,16,18,20,-1,-1,-1,-1,22,24,-1,-1,-1,-1,-1,-1,-1,-1],"split_conditions":[1.5121976E0,-1.1076849E-1,-3.8529772E-1,-3.9823118E-1,-3.7478477E-1,4.9398975E0,2.3949664E0,4.9398975E0,-3.1926036E-1,2.173734E0,-4.593374E-1,3.3704292E-2,1.1919663E-1,-1.2441267E-1,2.833186E-2,-3.292115E-1,-2.520923E-1,-2.2207538E-2,4.0746015E-2,2.8019428E-2,-7.030796E-2,-1.2123826E-3,-7.4405715E-2,2.6918544E-2,-8.475583E-3],"split_indices":[1,0,2,2,2,1,1,1,2,1,2,0,0,0,0,2,2,0,0,0,0,0,0,0,0],"split_type":[0,0,0,0,0,0,0,0,0,0,0,0,0,0,0,0,0,0,0,0,0,0,0,0,0],"sum_hessian":[3.129791E2,2.2465892E0,3.107325E2,4.8475353E1,2.6225714E2,4.251103E1,5.9643216E0,5.477805E0,2.5677936E2,3.1333635E1,1.1177394E1,2.741561E0,3.2227607E0,3.9964516E0,1.4813535E0,4.9424915E1,2.0735443E2,8.44063E0,2.2893005E1,4.6864295E0,6.490965E0,3.744142E1,1.1983494E1,7.23484E1,1.3500603E2],"tree_param":{"num_deleted":"0","num_feature":"3","num_nodes":"25","size_leaf_vector":"1"}},{"base_weights":[-1.0406545E-2,3.672876E-1,-5.875344E-2,1.13065384E-1,2.944526E-1,-3.5768554E-2,-8.001355E-1,8.984859E-2,2.1883814E-1,-5.4197516E-2,7.156232E-1,-1.3069738E-1,-2.092639E-1,-7.5465135E-2,3.387212E-1,-6.389334E-1,-3.214099E-2,3.788511E-1,9.81461E-2,4.1929588E-2,-8.7573014E-2,1.4619983E-2,5.9547182E-2,2.1294387E-2,-7.9394154E-2,3.564691E-2,-7.2706635E-3,-2.4907108E-2,8.680924E-2],"categories":[],"categories_nodes":[],"categories_segments":[],"categories_sizes":[],"default_left":[0,0,0,0,0,0,0,0,0,0,0,0,0,0,0,0,0,0,0,0,0,0,0,0,0,0,0,0,0],"id":4,"left_children":[1,3,5,-1,7,9,11,-1,13,15,17,-1,19,-1,21,23,25,27,-1,-1,-1,-1,-1,-1,-1,-1,-1,-1,-1],"loss_changes":[5.6746283E0,1.6280208E0,4.6628523E0,0E0,1.3356855E0,3.7509851E0,2.1917758E0,0E0,3.8896358E0,3.3661733E0,2.090261E-1,0E0,2.4582098E0,0E0,1.3174732E0,1.4224741E0,4.0316005E0,1.595829E0,0E0,0E0,0E0,0E0,0E0,0E0,0E0,0E0,0E0,0E0,0E0],"parents":[2147483647,0,0,1,1,2,2,4,4,5,5,6,6,8,8,9,9,10,10,12,12,14,14,15,15,16,16,17,17],"right_children":[2,4,6,-1,8,10,12,-1,14,16,18,-1,20,-1,22,24,26,28,-1,-1,-1,-1,-1,-1,-1,-1,-1,-1,-1],"split_conditions":[-2.8045878E0,1.7701496E0,6.220182E0,1.13065384E-1,-1.0233345E1,5.906688E0,6.626938E-1,8.984859E-2,-7.093326E0,-2.367388E0,7.833794E0,-1.3069738E-1,7.833794E0,-7.5465135E-2,3.365776E0,2.062771E0,-1.5221235E0,3.4807363E0,9.81461E-2,4.1929588E-2,-8.7573014E-2,1.4619983E-2,5.9547182E-2,2.1294387E-2,-7.9394154E-2,3.564691E-2,-7.2706635E-3,-2.4907108E-2,8.680924E-2],"split_indices":[0,1,1,0,0,0,0,0,0,0,0,0,0,0,1,1,0,1,0,0,0,0,0,0,0,0,0,0,0],"split_type":[0,0,0,0,0,0,0,0,0,0,0,0,0,0,0,0,0,0,0,0,0,0,0,0,0,0,0,0,0],"sum_hessian":[3.085807E2,3.426894E1,2.7431174E2,1.7198725E0,3.254907E1,2.6707977E2,7.2319627E0,2.4105272E0,3.0138542E1,2.6159174E2,5.4880433E0,3.2404363E0,3.9915266E0,2.723986E0,2.7414557E1,8.492078E0,2.5309966E2,3.4908454E0,1.9971975E0,2.245042E0,1.7464845E0,1.6563808E1,1.0850747E1,1.2497996E0,7.242278E0,2.318688E1,2.2991277E2,1.7437342E0,1.7471113E0],"tree_param":{"num_deleted":"0","num_feature":"3","num_nodes":"29","size_leaf_vector":"1"}},{"base_weights":[1.9704515E-2,4.792004E-1,-4.280555E-2,-5.4494157E-2,5.6800145E-1,-6.2498827E-2,7.678558E-1,9.5533155E-2,-5.394837E-1,1.321101E-1,6.494517E-1,-1.7810777E-2,-6.469786E-1,1.02014415E-1,-1.914739E-2,-8.833833E-2,6.738206E-3,9.815452E-2,-6.397127E-1,1.2305392E-1,4.9906662E-1,3.0398124E-3,-6.4757705E-1,-1.5179458E-1,-2.4155599E-1,8.470201E-3,-9.962309E-2,1.765211E-2,7.656173E-2,-5.8374014E-3,1.6782383E-2,-9.830918E-2,6.837661E-2,3.654462E-2,-6.2547974E-2],"categories":[],"categories_nodes":[],"categories_segments":[],"categories_sizes":[],"default_left":[0,0,0,0,0,0,0,0,0,0,0,0,0,0,0,0,0,0,0,0,0,0,0,0,0,0,0,0,0,0,0,0,0,0,0],"id":5,"left_children":[1,3,5,7,9,11,13,-1,15,17,19,21,23,-1,-1,-1,-1,-1,25,-1,27,29,31,-1,33,-1,-1,-1,-1,-1,-1,-1,-1,-1,-1],"loss_changes":[9.136033E0,1.835928E0,4.522427E0,3.6231222E0,1.0765877E0,7.1595297E0,1.8223419E0,0E0,1.0875448E0,4.8303623E0,1.7741728E0,3.36453E0,6.5091715E0,0E0,0E0,0E0,0E0,0E0,1.1081094E0,0E0,1.8761048E0,2.528333E0,4.3400774E0,0E0,3.6022158E0,0E0,0E0,0E0,0E0,0E0,0E0,0E0,0E0,0E0,0E0],"parents":[2147483647,0,0,1,1,2,2,3,3,4,4,5,5,6,6,8,8,9,9,10,10,11,11,12,12,18,18,20,20,21,21,22,22,24,24],"right_children":[2,4,6,8,10,12,14,-1,16,18,20,22,24,-1,-1,-1,-1,-1,26,-1,28,30,32,-1,34,-1,-1,-1,-1,-1,-1,-1,-1,-1,-1],"split_conditions":[-2.7635846E0,-7.093326E0,6.6193004E0,-1.4744063E1,2.0940685E0,3.9262192E0,7.570721E0,9.5533155E-2,4.672323E0,-4.0997944E0,2.3515096E0,5.627823E0,2.2784536E0,1.02014415E-1,-1.914739E-2,-8.833833E-2,6.738206E-3,9.815452E-2,1.8421556E0,1.2305392E-1,3.365776E0,2.7433681E0,8.413975E0,-1.5179458E-1,4.7236223E0,8.470201E-3,-9.962309E-2,1.765211E-2,7.656173E-2,-5.8374014E-3,1.6782383E-2,-9.830918E-2,6.837661E-2,3.654462E-2,-6.2547974E-2],"split_indices":[0,0,0,0,1,0,1,0,1,0,1,1,1,0,0,0,0,0,1,0,1,1,1,0,0,0,0,0,0,0,0,0,0,0,0],"split_type":[0,0,0,0,0,0,0,0,0,0,0,0,0,0,0,0,0,0,0,0,0,0,0,0,0,0,0,0,0,0,0,0,0,0,0],"sum_hessian":[3.1635837E2,3.708558E1,2.792728E2,5.3454924E0,3.1740086E1,2.7355035E2,5.722415E0,1.4196844E0,3.9258082E0,5.40996E0,2.6330126E1,2.5507812E2,1.8472244E1,4.480676E0,1.2417388E0,2.2149744E0,1.7108337E0,2.44613E0,2.9638295E0,3.9365823E0,2.2393543E1,2.478668E2,7.2113147E0,4.9957643E0,1.347648E1,1.2290082E0,1.7348213E0,1.0884614E1,1.1508929E1,1.8104018E2,6.682663E1,5.9687066E0,1.242608E0,5.239966E0,8.236513E0],"tree_param":{"num_deleted":"0","num_feature":"3","num_nodes":"35","size_leaf_vector":"1"}},{"base_weights":[-1.1358628E-2,-2.830222E-2,5.3289455E-1,-1.567117E-2,-1.283376E-1,7.40813E-1,-3.4347363E-2,4.586184E-2,-1.7272109E-1,1.5142559E-1,1.0641428E0,1.1052704E-1,-3.6956528E-1,-4.0060705E-1,2.204163E-1,4.7351573E-2,-3.0862195E-2,1.320499E-1,1.6368447E-2,8.49495E-3,7.442307E-2,4.560626E-4,-5.3490162E-2,-7.1778886E-2,-2.0411663E-2,8.124235E-2,1.4195397E-2],"categories":[],"categories_nodes":[],"categories_segments":[],"categories_sizes":[],"default_left":[0,0,0,0,0,0,0,0,0,0,0,0,0,0,0,0,0,0,0,0,0,0,0,0,0,0,0],"id":6,"left_children":[1,3,5,7,-1,9,-1,11,13,15,17,19,21,23,25,-1,-1,-1,-1,-1,-1,-1,-1,-1,-1,-1,-1],"loss_changes":[2.8749628E0,4.7629385E0,1.9697669E0,2.9043489E0,0E0,1.3491807E0,0E0,5.847079E0,7.6662064E0,7.34915E-1,9.2695E-1,2.9806607E0,1.817462E0,3.212741E0,1.356372E0,0E0,0E0,0E0,0E0,0E0,0E0,0E0,0E0,0E0,0E0,0E0,0E0],"parents":[2147483647,0,0,1,1,2,2,3,3,5,5,7,7,8,8,9,9,10,10,11,11,12,12,13,13,14,14],"right_children":[2,4,6,8,-1,10,-1,12,14,16,18,20,22,24,26,-1,-1,-1,-1,-1,-1,-1,-1,-1,-1,-1,-1],"split_conditions":[5.906688E0,5.360928E0,7.570721E0,1.2791332E0,-1.283376E-1,3.7949433E0,-3.4347363E-2,3.6394403E0,2.7122622E0,2.567504E0,1.0452571E1,3.387178E0,-3.048272E0,1.8978962E0,2.7946994E0,4.7351573E-2,-3.0862195E-2,1.320499E-1,1.6368447E-2,8.49495E-3,7.442307E-2,4.560626E-4,-5.3490162E-2,-7.1778886E-2,-2.0411663E-2,8.124235E-2,1.4195397E-2],"split_indices":[0,0,1,0,0,1,0,1,1,1,0,1,0,0,1,0,0,0,0,0,0,0,0,0,0,0,0],"split_type":[0,0,0,0,0,0,0,0,0,0,0,0,0,0,0,0,0,0,0,0,0,0,0,0,0,0,0],"sum_hessian":[3.0912836E2,3.0071457E2,8.4137945E0,2.9872073E2,1.9938366E0,6.9254165E0,1.4883779E0,2.151369E2,8.3583824E1,2.9734826E0,3.9519339E0,1.867945E2,2.8342403E1,5.290052E1,3.0683308E1,1.7317605E0,1.241722E0,2.7130632E0,1.2388707E0,1.8063765E2,6.1568437E0,8.984511E0,1.9357891E1,1.9220713E1,3.3679806E1,2.4960465E0,2.8187262E1],"tree_param":{"num_deleted":"0","num_feature":"3","num_nodes":"27","size_leaf_vector":"1"}},{"base_weights":[2.7565153E-2,1.04389496E-1,-1.663106E-1,1.5716279E-1,-1.1982657E-1,-2.4088255E-1,4.1617733E-1,5.439082E-1,1.0901027E-1,-6.171597E-1,-7.1411678E-3,-9.1616523E-1,-1.977001E-1,7.587704E-1,-3.5974745E-2,3.3716503E-1,1.1474716E-1,-4.7954115E-1,1.5170003E-1,-1.13352396E-1,1.7964727E-1,6.078045E-1,-1.5893874E-1,-3.6096636E-2,-1.2145758E-1,-4.1125778E-2,-4.340084E-1,1.907075E-2,8.683292E-2,-5.0666064E-2,3.2223696E-1,4.81493E-2,-6.121272E-3,3.796645E-2,-8.025699E-2,9.501831E-3,7.188331E-2,8.4052436E-2,-7.071695E-2,9.1941796E-2,-2.5374109E-2,-5.489961E-2,-4.1973736E-4,2.9713646E-2,-1.5050003E-2,-6.0061004E-2,3.4615982E-2,6.5449014E-2,-1.8615652E-2],"categories":[],"categories_nodes":[],"categories_segments":[],"categories_sizes":[],"default_left":[0,0,0,0,0,0,0,0,0,0,0,0,0,0,0,0,0,0,0,0,0,0,0,0,0,0,0,0,0,0,0,0,0,0,0,0,0,0,0,0,0,0,0,0,0,0,0,0,0],"id":7,"left_children":[1,3,5,7,9,11,13,15,17,19,21,23,25,27,29,31,-1,33,35,-1,37,39,41,-1,-1,43,45,-1,-1,-1,47,-1,-1,-1,-1,-1,-1,-1,-1,-1,-1,-1,-1,-1,-1,-1,-1,-1,-1],"loss_changes":[4.651794E0,2.6629813E0,3.9527235E0,3.317391E0,2.413395E0,2.1300693E0,1.6433179E0,2.0869732E0,4.155448E0,3.477804E0,3.4743512E0,3.05228E-1,2.7856107E0,2.0660949E-1,1.082476E0,9.599588E-1,0E0,3.4214523E0,4.8264284E0,0E0,2.934216E0,2.212192E0,1.7971921E0,0E0,0E0,1.7716745E0,4.1191254E0,0E0,0E0,0E0,7.4801683E-1,0E0,0E0,0E0,0E0,0E0,0E0,0E0,0E0,0E0,0E0,0E0,0E0,0E0,0E0,0E0,0E0,0E0,0E0],"parents":[2147483647,0,0,1,1,2,2,3,3,4,4,5,5,6,6,7,7,8,8,9,9,10,10,11,11,12,12,13,13,14,14,15,15,17,17,18,18,20,20,21,21,22,22,25,25,26,26,30,30],"right_children":[2,4,6,8,10,12,14,16,18,20,22,24,26,28,30,32,-1,34,36,-1,38,40,42,-1,-1,44,46,-1,-1,-1,48,-1,-1,-1,-1,-1,-1,-1,-1,-1,-1,-1,-1,-1,-1,-1,-1,-1,-1],"split_conditions":[1.3639803E0,3.1890726E0,4.9774547E0,-2.7635846E0,3.387178E0,1.4516251E0,4.8690495E0,-3.048272E0,-2.2311137E0,-6.19638E-1,3.6394403E0,1.4104687E0,3.214316E0,2.0894125E0,5.6335015E0,2.561217E0,1.1474716E-1,2.1081479E0,2.8095186E0,-1.13352396E-1,3.2907488E0,3.651602E-2,4.208967E0,-3.6096636E-2,-1.2145758E-1,2.0409045E0,5.906688E0,1.907075E-2,8.683292E-2,-5.0666064E-2,7.570721E0,4.81493E-2,-6.121272E-3,3.796645E-2,-8.025699E-2,9.501831E-3,7.188331E-2,8.4052436E-2,-7.071695E-2,9.1941796E-2,-2.5374109E-2,-5.489961E-2,-4.1973736E-4,2.9713646E-2,-1.5050003E-2,-6.0061004E-2,3.4615982E-2,6.5449014E-2,-1.8615652E-2],"split_indices":[0,1,1,0,1,0,0,0,0,0,1,0,0,0,0,1,0,1,1,0,1,0,1,0,0,1,0,0,0,0,1,0,0,0,0,0,0,0,0,0,0,0,0,0,0,0,0,0,0],"split_type":[0,0,0,0,0,0,0,0,0,0,0,0,0,0,0,0,0,0,0,0,0,0,0,0,0,0,0,0,0,0,0,0,0,0,0,0,0,0,0,0,0,0,0,0,0,0,0,0,0],"sum_hessian":[3.101532E2,2.2246268E2,8.769051E1,1.8032014E2,4.2142536E1,7.825812E1,9.432393E0,1.8825367E1,1.6149478E2,6.9577794E0,3.5184757E1,3.488541E0,7.476958E1,4.9805374E0,4.4518557E0,1.5183181E1,3.6421864E0,1.0229566E1,1.5126521E2,3.965431E0,2.9923482E0,6.3710427E0,2.8813715E1,1.992005E0,1.4965358E0,4.5678036E1,2.9091543E1,1.2483778E0,3.7321596E0,1.7447968E0,2.7070591E0,1.0992194E1,4.1909866E0,2.7471776E0,7.482388E0,1.3858224E2,1.2682968E1,1.7445033E0,1.2478449E0,4.6294413E0,1.741601E0,7.460404E0,2.1353312E1,1.0741391E1,3.493664E1,2.4162003E1,4.9295416E0,1.4633431E0,1.243716E0],"tree_param":{"num_deleted":"0","num_feature":"3","num_nodes":"49","size_leaf_vector":"1"}},{"base_weights":[2.1234341E-2,-6.324166E-3,4.1959062E-1,-8.4895283E-1,3.9063552E-3,7.0150954E-1,1.4428209E-1,-2.4012232E-2,-1.07888155E-1,4.415715E-1,-3.1928226E-2,3.140702E-1,1.1290139E-1,3.1146622E-1,-2.8588462E-1,7.098012E-1,-3.0465785E-1,3.1772923E-1,-5.4324757E-2,-3.5524018E-2,9.897333E-2,-1.3292677E-2,4.6228978E-1,-8.789351E-2,5.0785154E-2,3.6205493E-2,1.3801132E-1,-4.580054E-2,1.8854655E-2,-2.4561845E-2,4.4854213E-2,-4.5476067E-3,-8.42653E-2,-3.330614E-2,1.406218E-2,6.278907E-2,1.9012032E-2],"categories":[],"categories_nodes":[],"categories_segments":[],"categories_sizes":[],"default_left":[0,0,0,0,0,0,0,0,0,0,0,0,0,0,0,0,0,0,0,0,0,0,0,0,0,0,0,0,0,0,0,0,0,0,0,0,0],"id":8,"left_children":[1,3,5,7,9,11,13,-1,-1,15,17,19,-1,21,23,25,27,29,31,33,-1,-1,35,-1,-1,-1,-1,-1,-1,-1,-1,-1,-1,-1,-1,-1,-1],"loss_changes":[3.400985E0,2.507675E0,1.454525E0,2.2941232E-1,4.531298E0,1.2428284E0,9.088994E-1,0E0,0E0,4.592759E0,2.109394E0,1.5574371E0,0E0,6.4376444E-1,2.193704E0,3.319419E0,5.76519E-1,1.3060653E0,1.7190502E0,3.2002226E-1,0E0,0E0,1.8304884E-1,0E0,0E0,0E0,0E0,0E0,0E0,0E0,0E0,0E0,0E0,0E0,0E0,0E0,0E0],"parents":[2147483647,0,0,1,1,2,2,3,3,4,4,5,5,6,6,9,9,10,10,11,11,13,13,14,14,15,15,16,16,17,17,18,18,19,19,22,22],"right_children":[2,4,6,8,10,12,14,-1,-1,16,18,20,-1,22,24,26,28,30,32,34,-1,-1,36,-1,-1,-1,-1,-1,-1,-1,-1,-1,-1,-1,-1,-1,-1],"split_conditions":[-1.128824E-1,1.5121976E0,-8.2971215E-2,1.4962541E0,1.7877256E0,2.4011743E0,2.561217E0,-2.4012232E-2,-1.07888155E-1,-1.8402292E-1,-4.4499457E-1,-9.2051186E-2,1.1290139E-1,-6.6013485E-2,2.7685397E0,-2.2625455E-1,1.703699E0,-5.0933605E-1,1.0371631E1,1.8209958E0,9.897333E-2,-1.3292677E-2,-5.1455252E-2,-8.789351E-2,5.0785154E-2,3.6205493E-2,1.3801132E-1,-4.580054E-2,1.8854655E-2,-2.4561845E-2,4.4854213E-2,-4.5476067E-3,-8.42653E-2,-3.330614E-2,1.406218E-2,6.278907E-2,1.9012032E-2],"split_indices":[2,1,2,1,1,1,1,0,0,2,2,2,0,2,1,2,1,2,1,1,0,0,2,0,0,0,0,0,0,0,0,0,0,0,0,0,0],"split_type":[0,0,0,0,0,0,0,0,0,0,0,0,0,0,0,0,0,0,0,0,0,0,0,0,0,0,0,0,0,0,0,0,0,0,0,0,0],"sum_hessian":[3.085554E2,2.89511E2,1.9044403E1,2.4894214E0,2.8702155E2,8.64438E0,1.0400023E1,1.2428362E0,1.246585E0,2.0864975E1,2.661566E2,5.4446516E0,3.1997285E0,7.688019E0,2.7120051E0,1.5384047E1,5.4809284E0,1.5228036E1,2.5092854E2,4.212493E0,1.2321587E0,1.9781561E0,5.7098627E0,1.4907972E0,1.2212079E0,1.11432495E1,4.240797E0,4.235417E0,1.2455115E0,2.7042992E0,1.2523736E1,2.4918918E2,1.7393682E0,1.2352083E0,2.9772847E0,2.7373464E0,2.9725163E0],"tree_param":{"num_deleted":"0","num_feature":"3","num_nodes":"37","size_leaf_vector":"1"}},{"base_weights":[-1.9765392E-2,7.46342E-6,-5.76642E-1,-1.0232557E-1,1.1162723E-2,8.200332E-3,-6.6842175E-1,-9.2278756E-2,1.0243145E-1,-8.864845E-1,-2.6159808E-1,-1.5108484E-1,2.3970717E-1,6.24008E-1,4.9504434E-4,-3.080083E-1,-1.3109179E-1,4.4759996E-2,-1.0856692E-1,-4.9180463E-3,-4.9712967E-2,-1.6773602E-2,4.6484787E-2,1.15144804E-1,4.1739315E-2,-6.1512448E-2,4.4517354E-3,-6.3722245E-2,1.13650765E-2],"categories":[],"categories_nodes":[],"categories_segments":[],"categories_sizes":[],"default_left":[0,0,0,0,0,0,0,0,0,0,0,0,0,0,0,0,0,0,0,0,0,0,0,0,0,0,0,0,0],"id":9,"left_children":[1,3,5,-1,7,-1,9,11,13,15,17,19,21,23,25,27,-1,-1,-1,-1,-1,-1,-1,-1,-1,-1,-1,-1,-1],"loss_changes":[3.3943503E0,3.420982E0,6.937885E-1,0E0,2.8083725E0,0E0,6.008258E-1,2.7594814E0,8.398778E0,9.938717E-1,3.2294168E0,4.1759396E0,2.0389464E0,2.3338194E0,3.635821E0,5.8828735E-1,0E0,0E0,0E0,0E0,0E0,0E0,0E0,0E0,0E0,0E0,0E0,0E0,0E0],"parents":[2147483647,0,0,1,1,2,2,4,4,6,6,7,7,8,8,9,9,10,10,11,11,12,12,13,13,14,14,15,15],"right_children":[2,4,6,-1,8,-1,10,12,14,16,18,20,22,24,26,28,-1,-1,-1,-1,-1,-1,-1,-1,-1,-1,-1,-1,-1],"split_conditions":[6.220182E0,1.5121976E0,-4.666109E-1,-1.0232557E-1,-2.7143615E-1,8.200332E-3,-3.3480355E-1,4.4699416E0,-2.520923E-1,-4.028055E-1,-2.761285E-1,2.9236329E0,-4.2178455E-1,2.0940685E0,-2.4502563E-1,-4.321065E-1,-1.3109179E-1,4.4759996E-2,-1.0856692E-1,-4.9180463E-3,-4.9712967E-2,-1.6773602E-2,4.6484787E-2,1.15144804E-1,4.1739315E-2,-6.1512448E-2,4.4517354E-3,-6.3722245E-2,1.13650765E-2],"split_indices":[1,1,2,0,2,0,2,1,2,2,2,1,2,1,2,2,0,0,0,0,0,0,0,0,0,0,0,0,0],"split_type":[0,0,0,0,0,0,0,0,0,0,0,0,0,0,0,0,0,0,0,0,0,0,0,0,0,0,0,0,0],"sum_hessian":[3.0726752E2,2.9769727E2,9.570263E0,2.2319689E0,2.954653E2,1.1835061E0,8.386757E0,1.3849161E2,1.5697368E2,4.6924853E0,3.6942716E0,1.1811441E2,2.0377203E1,2.4825884E1,1.321478E2,2.7161863E0,1.9762993E0,2.2310588E0,1.4632126E0,9.2126755E1,2.5987656E1,7.3431244E0,1.3034079E1,5.7006135E0,1.9125269E1,7.95333E0,1.24194466E2,1.2382133E0,1.4779729E0],"tree_param":{"num_deleted":"0","num_feature":"3","num_nodes":"29","size_leaf_vector":"1"}},{"base_weights":[2.9802242E-2,3.3447945E-1,-9.601489E-3,4.4228038E-1,-1.041704E-1,3.3355463E-2,-3.2941753E-1,3.1452817E-1,1.08396046E-1,-5.5708945E-2,8.886483E-2,-3.960159E-2,2.5241938E-1,-6.4294493E-1,2.7891275E-1,4.219175E-1,-5.4733466E-2,3.6652066E-2,-9.0775006E-2,7.1619065E-3,-5.301919E-1,1.3827775E-1,1.8556571E-1,-1.15716E-1,-4.6391848E-1,-6.8000995E-2,4.5447585E-1,-3.109327E-2,4.9529817E-2,-4.6520527E-2,3.531065E-2,4.2620483E-3,-5.4857522E-2,-2.4207579E-2,-1.2691028E-1,-3.1978082E-2,3.0125309E-2,4.998742E-2,-6.327597E-2,7.044302E-2,-3.389079E-2],"categories":[],"categories_nodes":[],"categories_segments":[],"categories_sizes":[],"default_left":[0,0,0,0,0,0,0,0,0,0,0,0,0,0,0,0,0,0,0,0,0,0,0,0,0,0,0,0,0,0,0,0,0,0,0,0,0,0,0,0,0],"id":10,"left_children":[1,3,5,7,9,11,13,15,-1,-1,17,19,21,23,25,27,-1,-1,29,31,33,-1,35,-1,37,-1,39,-1,-1,-1,-1,-1,-1,-1,-1,-1,-1,-1,-1,-1,-1],"loss_changes":[3.715137E0,1.7217145E0,3.785617E0,2.0065088E0,7.314485E-1,3.8956945E0,6.4020376E0,2.5716436E0,0E0,0E0,3.4907123E-1,4.20784E0,4.3437867E0,1.4730196E0,2.294534E0,1.3937092E0,0E0,0E0,9.3640417E-1,3.339608E0,3.0906792E0,0E0,3.5241206E0,0E0,3.2231846E0,0E0,2.334475E0,0E0,0E0,0E0,0E0,0E0,0E0,0E0,0E0,0E0,0E0,0E0,0E0,0E0,0E0],"parents":[2147483647,0,0,1,1,2,2,3,3,4,4,5,5,6,6,7,7,10,10,11,11,12,12,13,13,14,14,15,15,18,18,19,19,20,20,22,22,24,24,26,26],"right_children":[2,4,6,8,10,12,14,16,-1,-1,18,20,22,24,26,28,-1,-1,30,32,34,-1,36,-1,38,-1,40,-1,-1,-1,-1,-1,-1,-1,-1,-1,-1,-1,-1,-1,-1],"split_conditions":[-2.7635846E0,5.1796274E0,3.867893E0,4.208967E0,5.2949786E0,2.6871967E0,3.3787036E0,3.6394403E0,1.08396046E-1,-5.5708945E-2,5.7564936E0,2.576381E0,2.7037544E0,-1.628434E0,4.4699416E0,-7.093326E0,-5.4733466E-2,3.6652066E-2,-4.8790226E0,3.9262192E0,2.0513282E0,1.3827775E-1,-9.435316E-1,-1.15716E-1,-1.0878162E0,-6.8000995E-2,7.570721E0,-3.109327E-2,4.9529817E-2,-4.6520527E-2,3.531065E-2,4.2620483E-3,-5.4857522E-2,-2.4207579E-2,-1.2691028E-1,-3.1978082E-2,3.0125309E-2,4.998742E-2,-6.327597E-2,7.044302E-2,-3.389079E-2],"split_indices":[0,1,1,1,1,1,0,1,0,0,1,1,1,0,1,0,0,0,0,0,0,0,0,0,0,0,1,0,0,0,0,0,0,0,0,0,0,0,0,0,0],"split_type":[0,0,0,0,0,0,0,0,0,0,0,0,0,0,0,0,0,0,0,0,0,0,0,0,0,0,0,0,0,0,0,0,0,0,0,0,0,0,0,0,0],"sum_hessian":[3.081875E2,3.443568E1,2.7375183E2,2.7635748E1,6.7999325E0,2.4212576E2,3.1626068E1,2.4290009E1,3.3457394E0,1.4684823E0,5.3314505E0,1.8224883E2,5.9876934E1,2.083237E1,1.0793698E1,2.2052673E1,2.2373354E0,1.685693E0,3.6457572E0,1.6728816E2,1.4960653E1,2.2444386E0,5.7632496E1,3.9689078E0,1.6863462E1,1.2256902E0,9.568008E0,1.7125226E0,2.034015E1,1.9515306E0,1.6942266E0,1.5812253E2,9.165634E0,1.1718851E1,3.2418022E0,1.0407256E1,4.722524E1,2.2215602E0,1.4641902E1,7.361043E0,2.2069657E0],"tree_param":{"num_deleted":"0","num_feature":"3","num_nodes":"41","size_leaf_vector":"1"}},{"base_weights":[8.787161E-3,9.347481E-2,-1.6837427E-1,6.8177424E-2,6.222338E-1,-2.4025121E-1,4.7383672E-1,1.3281451E-1,-1.830122E-1,1.2122927E-1,1.1874405E-1,-8.340605E-1,-2.0339671E-1,7.911668E-1,-2.3498811E-1,-3.6599587E-3,3.377998E-1,-5.515637E-1,1.182679E-1,-9.6623234E-2,7.5962293E-1,-1.22518025E-1,-3.137989E-1,1.12893954E-1,-2.3994878E-1,9.4850175E-3,9.1324174E-1,3.820422E-2,-7.5884596E-2,6.352111E-2,-5.6626503E-3,5.488568E-2,1.6007356E-2,-8.6197674E-2,-1.8645388E-3,6.4517476E-2,-1.4936593E-2,1.0160389E-1,3.4525644E-2,1.5197642E-2,-6.402606E-2,-4.6211038E-2,-1.4304267E-2,3.2556597E-2,1.0297133E-1],"categories":[],"categories_nodes":[],"categories_segments":[],"categories_sizes":[],"default_left":[0,0,0,0,0,0,0,0,0,0,0,0,0,0,0,0,0,0,0,0,0,0,0,0,0,0,0,0,0,0,0,0,0,0,0,0,0,0,0,0,0,0,0,0,0],"id":11,"left_children":[1,3,5,7,9,11,13,15,17,-1,19,21,23,25,27,29,31,33,35,-1,37,-1,39,-1,41,-1,43,-1,-1,-1,-1,-1,-1,-1,-1,-1,-1,-1,-1,-1,-1,-1,-1,-1,-1],"loss_changes":[4.6449356E0,2.7585166E0,4.7366233E0,3.2871127E0,2.6598787E0,1.8159361E0,2.5289712E0,4.488757E0,4.678699E0,0E0,5.045762E0,6.287968E-1,4.495597E0,5.444789E-1,1.5803666E0,3.3280404E0,2.3174357E0,3.1046E0,3.4362726E0,0E0,1.2288785E-1,0E0,6.266598E-1,0E0,1.7694159E0,0E0,8.921051E-2,0E0,0E0,0E0,0E0,0E0,0E0,0E0,0E0,0E0,0E0,0E0,0E0,0E0,0E0,0E0,0E0,0E0,0E0],"parents":[2147483647,0,0,1,1,2,2,3,3,4,4,5,5,6,6,7,7,8,8,10,10,11,11,12,12,13,13,14,14,15,15,16,16,17,17,18,18,20,20,22,22,24,24,26,26],"right_children":[2,4,6,8,10,12,14,16,18,-1,20,22,24,26,28,30,32,34,36,-1,38,-1,40,-1,42,-1,44,-1,-1,-1,-1,-1,-1,-1,-1,-1,-1,-1,-1,-1,-1,-1,-1,-1,-1],"split_conditions":[1.1782047E0,1.0021583E0,-1.2701522E-1,-1.9159442E-1,-2.6276362E-1,1.2639419E0,-5.946868E-2,-2.7931932E-1,-1.5538044E-1,1.2122927E-1,-2.0616049E-1,-2.8288078E-1,1.2791332E0,2.0513282E0,2.550524E0,-4.839876E-1,-2.4264301E-1,-1.862028E-1,-1.3472044E-1,-9.6623234E-2,-1.7350207E-1,-1.22518025E-1,-2.2930805E-1,1.12893954E-1,1.8978962E0,9.4850175E-3,-1.128824E-1,3.820422E-2,-7.5884596E-2,6.352111E-2,-5.6626503E-3,5.488568E-2,1.6007356E-2,-8.6197674E-2,-1.8645388E-3,6.4517476E-2,-1.4936593E-2,1.0160389E-1,3.4525644E-2,1.5197642E-2,-6.402606E-2,-4.6211038E-2,-1.4304267E-2,3.2556597E-2,1.0297133E-1],"split_indices":[0,0,2,2,2,0,2,2,2,0,2,2,0,0,0,2,2,0,2,0,2,0,2,0,0,0,2,0,0,0,0,0,0,0,0,0,0,0,0,0,0,0,0,0,0],"split_type":[0,0,0,0,0,0,0,0,0,0,0,0,0,0,0,0,0,0,0,0,0,0,0,0,0,0,0,0,0,0,0,0,0,0,0,0,0,0,0,0,0,0,0,0,0],"sum_hessian":[3.0754346E2,2.0839685E2,9.91466E1,1.9995915E2,8.437696E0,8.9729836E1,9.4167595E0,1.5941032E2,4.0548824E1,3.236702E0,5.200995E0,3.979526E0,8.575031E1,6.42446E0,2.9922996E0,9.628688E1,6.3123444E1,1.7864595E1,2.2684229E1,1.7428195E0,3.4581752E0,1.4982483E0,2.4812775E0,1.4916952E0,8.425862E1,1.2233639E0,5.201096E0,1.498267E0,1.4940324E0,6.530057E0,8.975683E1,2.790131E1,3.5222134E1,1.0898814E1,6.9657817E0,7.165808E0,1.551842E1,1.2392684E0,2.2189069E0,1.2427182E0,1.2385594E0,2.444613E1,5.9812485E1,1.4880652E0,3.7130306E0],"tree_param":{"num_deleted":"0","num_feature":"3","num_nodes":"45","size_leaf_vector":"1"}},{"base_weights":[8.621706E-3,5.834568E-2,-2.5796893E-1,3.0504972E-2,4.2676616E-1,-1.0941072E-1,-1.642221E-1,5.5313997E-2,-4.3450338E-1,9.521254E-1,9.183316E-2,-2.4865808E-1,2.0941724E-1,-8.428706E-3,2.392791E-1,3.2547918E-1,-8.089929E-1,1.999867E-2,1.0809101E0,-4.852563E-1,4.592866E-1,-1.5740548E-1,-9.25295E-2,3.5919744E-1,-2.0879652E-2,3.666692E-3,-7.102349E-2,4.747073E-2,1.4034647E-3,7.6467626E-2,-2.2136126E-2,-1.3305964E-1,-4.1679468E-2,1.2932362E-1,1.727789E-2,-6.8783045E-2,-1.4859264E-2,-5.749338E-4,5.6782126E-2,1.1433425E-2,-3.157234E-2,2.3415654E-3,6.516152E-2],"categories":[],"categories_nodes":[],"categories_segments":[],"categories_sizes":[],"default_left":[0,0,0,0,0,0,0,0,0,0,0,0,0,0,0,0,0,0,0,0,0,0,0,0,0,0,0,0,0,0,0,0,0,0,0,0,0,0,0,0,0,0,0],"id":12,"left_children":[1,3,5,7,9,-1,11,13,15,17,19,21,23,25,27,29,31,-1,33,35,37,39,-1,41,-1,-1,-1,-1,-1,-1,-1,-1,-1,-1,-1,-1,-1,-1,-1,-1,-1,-1,-1],"loss_changes":[4.089484E0,2.6524358E0,3.6221516E0,2.823734E0,3.111644E0,0E0,1.4650933E0,2.714096E0,3.7937732E0,4.591155E-1,2.811888E0,2.1382995E0,6.261462E-1,5.492668E0,3.1511633E0,1.3239901E0,1.2040873E0,0E0,8.805003E-1,2.5488484E-1,4.056952E-1,1.4901862E0,0E0,6.5694356E-1,0E0,0E0,0E0,0E0,0E0,0E0,0E0,0E0,0E0,0E0,0E0,0E0,0E0,0E0,0E0,0E0,0E0,0E0,0E0],"parents":[2147483647,0,0,1,1,2,2,3,3,4,4,6,6,7,7,8,8,9,9,10,10,11,11,12,12,13,13,14,14,15,15,16,16,18,18,19,19,20,20,21,21,23,23],"right_children":[2,4,6,8,10,-1,12,14,16,18,20,22,24,26,28,30,32,-1,34,36,38,40,-1,42,-1,-1,-1,-1,-1,-1,-1,-1,-1,-1,-1,-1,-1,-1,-1,-1,-1,-1,-1],"split_conditions":[2.550524E0,1.8978962E0,1.875872E0,5.366496E0,2.0894125E0,-1.0941072E-1,5.906688E0,2.7433681E0,-2.913715E0,1.9269886E0,2.2246287E0,5.158754E0,6.220182E0,1.5706903E0,3.2907488E0,6.220182E0,5.7564936E0,1.999867E-2,2.9042978E0,2.339473E0,2.1684551E0,2.5454407E0,-9.25295E-2,3.7949433E0,-2.0879652E-2,3.666692E-3,-7.102349E-2,4.747073E-2,1.4034647E-3,7.6467626E-2,-2.2136126E-2,-1.3305964E-1,-4.1679468E-2,1.2932362E-1,1.727789E-2,-6.8783045E-2,-1.4859264E-2,-5.749338E-4,5.6782126E-2,1.1433425E-2,-3.157234E-2,2.3415654E-3,6.516152E-2],"split_indices":[0,0,1,1,0,0,0,1,0,0,0,0,1,0,1,1,1,0,1,1,1,1,0,1,0,0,0,0,0,0,0,0,0,0,0,0,0,0,0,0,0,0,0],"split_type":[0,0,0,0,0,0,0,0,0,0,0,0,0,0,0,0,0,0,0,0,0,0,0,0,0,0,0,0,0,0,0,0,0,0,0,0,0,0,0,0,0,0,0],"sum_hessian":[3.0636642E2,2.5886462E2,4.7501797E1,2.4168391E2,1.7180714E1,3.7131274E0,4.378867E1,2.3027916E2,1.14047575E1,5.971454E0,1.1209259E1,3.5990044E1,7.7986245E0,1.7173001E2,5.8549145E1,3.8079147E0,7.596843E0,1.2461963E0,4.725258E0,4.235994E0,6.973265E0,3.2799297E1,3.190749E0,5.8460274E0,1.9525968E0,1.6225201E2,9.477998E0,2.8085903E1,3.046324E1,1.8908873E0,1.9170275E0,2.2336037E0,5.3632393E0,3.4861205E0,1.2391374E0,1.9934404E0,2.2425535E0,1.4987278E0,5.4745374E0,1.2176738E1,2.0622559E1,3.2240007E0,2.6220267E0],"tree_param":{"num_deleted":"0","num_feature":"3","num_nodes":"43","size_leaf_vector":"1"}},{"base_weights":[-1.1470591E-2,9.3330294E-2,-1.3825724E-1,5.0873473E-2,6.545992E-1,-6.6511655E-1,-8.102655E-2,2.2531202E-1,-3.0875405E-2,9.8499084E-1,2.2157066E-1,-7.866214E-1,-2.378735E-1,-1.4031012E-1,3.517289E-1,9.0224445E-2,9.2450356E-1,2.0764184E-1,-1.1967622E-1,1.3016166E-1,5.111764E-1,-1.11916415E-1,7.587384E-1,-4.7634003E-1,-1.375457E-1,6.8407655E-2,-9.249518E-2,1.6656528E-1,-2.6101E-1,1.09266475E-1,2.1370636E-1,8.64427E-2,2.5295266E-3,1.22301534E-1,8.661278E-3,4.818998E-2,5.050371E-3,-2.402678E-2,1.918499E-2,-2.7220566E-2,9.288814E-2,1.2822995E-1,-6.678237E-3,-7.658422E-2,2.8395751E-2,3.551751E-2,-2.1814834E-2,-2.2869185E-2,-9.812564E-2,7.864307E-3,7.101277E-2],"categories":[],"categories_nodes":[],"categories_segments":[],"categories_sizes":[],"default_left":[0,0,0,0,0,0,0,0,0,0,0,0,0,0,0,0,0,0,0,0,0,0,0,0,0,0,0,0,0,0,0,0,0,0,0,0,0,0,0,0,0,0,0,0,0,0,0,0,0,0,0],"id":13,"left_children":[1,3,5,7,9,11,13,15,17,19,21,23,25,27,29,31,33,35,37,-1,39,-1,41,43,-1,-1,-1,45,47,-1,49,-1,-1,-1,-1,-1,-1,-1,-1,-1,-1,-1,-1,-1,-1,-1,-1,-1,-1,-1,-1],"loss_changes":[4.140498E0,4.0335407E0,4.1969533E0,2.2849486E0,1.4867859E0,5.227661E-1,3.3410122E0,4.742607E0,2.347302E0,3.0523348E-1,5.4929175E0,1.2108378E0,3.4587948E0,4.2497015E0,1.3765497E0,2.1864069E0,1.9363546E0,1.2734483E0,3.0716543E0,0E0,1.6396948E0,0E0,2.332894E0,2.0264304E0,0E0,0E0,0E0,2.4478288E0,1.6818085E0,0E0,9.1734254E-1,0E0,0E0,0E0,0E0,0E0,0E0,0E0,0E0,0E0,0E0,0E0,0E0,0E0,0E0,0E0,0E0,0E0,0E0,0E0,0E0],"parents":[2147483647,0,0,1,1,2,2,3,3,4,4,5,5,6,6,7,7,8,8,9,9,10,10,11,11,12,12,13,13,14,14,15,15,16,16,17,17,18,18,20,20,22,22,23,23,27,27,28,28,30,30],"right_children":[2,4,6,8,10,12,14,16,18,20,22,24,26,28,30,32,34,36,38,-1,40,-1,42,44,-1,-1,-1,46,48,-1,50,-1,-1,-1,-1,-1,-1,-1,-1,-1,-1,-1,-1,-1,-1,-1,-1,-1,-1,-1,-1],"split_conditions":[3.7819558E-1,1.9950768E-1,5.9595007E-1,2.1626275E0,2.90283E-1,2.5022755E0,4.507432E0,2.0940685E0,-2.687063E0,1.8825942E0,1.9730059E0,2.2721515E0,3.2102108E0,1.2791332E0,4.672323E0,-4.369471E0,2.14123E0,2.8351955E0,-4.604772E-1,1.3016166E-1,2.1081479E0,-1.11916415E-1,2.9042978E0,2.1896596E0,-1.375457E-1,6.8407655E-2,-9.249518E-2,2.4825337E0,4.1238675E0,1.09266475E-1,8.413975E0,8.64427E-2,2.5295266E-3,1.22301534E-1,8.661278E-3,4.818998E-2,5.050371E-3,-2.402678E-2,1.918499E-2,-2.7220566E-2,9.288814E-2,1.2822995E-1,-6.678237E-3,-7.658422E-2,2.8395751E-2,3.551751E-2,-2.1814834E-2,-2.2869185E-2,-9.812564E-2,7.864307E-3,7.101277E-2],"split_indices":[0,0,0,1,0,1,1,1,0,1,1,1,1,0,1,0,1,1,0,0,1,0,1,1,0,0,0,1,1,0,1,0,0,0,0,0,0,0,0,0,0,0,0,0,0,0,0,0,0,0,0],"split_type":[0,0,0,0,0,0,0,0,0,0,0,0,0,0,0,0,0,0,0,0,0,0,0,0,0,0,0,0,0,0,0,0,0,0,0,0,0,0,0,0,0,0,0,0,0,0,0,0,0,0,0],"sum_hessian":[3.096409E2,1.696628E2,1.3997812E2,1.5874525E2,1.09175415E1,1.26746855E1,1.2730343E2,5.00949E1,1.0865035E2,5.4696546E0,5.4478874E0,9.2133255E0,3.4613602E0,1.1255956E2,1.4743864E1,4.292969E1,7.1652064E0,2.9113573E1,7.953678E1,2.231414E0,3.2382405E0,1.2484317E0,4.1994557E0,7.218538E0,1.9947878E0,1.4799162E0,1.981444E0,3.1667078E1,8.089249E1,1.2291174E0,1.3514747E1,2.3689866E0,4.0560707E1,4.9441423E0,2.2210643E0,9.851946E0,1.9261627E1,5.750527E1,2.2031513E1,1.2473105E0,1.9909301E0,2.231117E0,1.9683386E0,5.2226076E0,1.9959302E0,2.1300882E1,1.0366196E1,7.867957E1,2.212909E0,1.1534838E1,1.9799085E0],"tree_param":{"num_deleted":"0","num_feature":"3","num_nodes":"51","size_leaf_vector":"1"}},{"base_weights":[5.5249706E-3,-3.4927465E-2,2.9879162E-1,2.258791E-3,-5.60027E-1,8.907226E-1,1.0833759E-1,-4.8727408E-2,2.4895617E-1,-8.471714E-1,-1.9643508E-1,1.5325033E-3,1.0633783E0,-3.9586616E-1,2.204428E-1,-8.326997E-3,-4.0772486E-1,7.4372286E-1,8.028013E-2,-2.357452E-1,-1.1148405E0,3.9546248E-2,-4.1394454E-1,1.2384474E-1,9.527291E-3,3.572966E-2,-9.844428E-2,-8.0674924E-2,5.553409E-1,-2.8427292E-3,8.2990766E-2,-1.7685736E-2,-9.456651E-2,8.5358284E-2,3.95289E-2,-2.2473102E-2,6.52506E-2,-6.8617746E-2,2.5530616E-2,-1.2811188E-1,-3.3673994E-2,-6.6106014E-2,4.1023325E-3,-3.4417417E-2,3.0087221E-2,1.195358E-1,1.4729376E-2],"categories":[],"categories_nodes":[],"categories_segments":[],"categories_sizes":[],"default_left":[0,0,0,0,0,0,0,0,0,0,0,0,0,0,0,0,0,0,0,0,0,0,0,0,0,0,0,0,0,0,0,0,0,0,0,0,0,0,0,0,0,0,0,0,0,0,0],"id":14,"left_children":[1,3,5,7,9,11,13,15,17,19,21,-1,23,25,27,29,31,33,35,37,39,-1,41,-1,-1,-1,-1,43,45,-1,-1,-1,-1,-1,-1,-1,-1,-1,-1,-1,-1,-1,-1,-1,-1,-1,-1],"loss_changes":[3.6364055E0,5.26347E0,4.0920806E0,3.1901805E0,1.694736E0,1.329752E0,1.7404851E0,3.0456333E0,3.565517E0,1.3178935E0,1.3440201E0,0E0,1.1402807E0,2.8686981E0,2.5225637E0,3.2245355E0,2.4711185E0,8.0712795E-2,5.9963617E0,1.1061583E0,4.0303993E-1,0E0,8.358146E-1,0E0,0E0,0E0,0E0,1.4920546E0,2.8950093E0,0E0,0E0,0E0,0E0,0E0,0E0,0E0,0E0,0E0,0E0,0E0,0E0,0E0,0E0,0E0,0E0,0E0,0E0],"parents":[2147483647,0,0,1,1,2,2,3,3,4,4,5,5,6,6,7,7,8,8,9,9,10,10,12,12,13,13,14,14,15,15,16,16,17,17,18,18,19,19,20,20,22,22,27,27,28,28],"right_children":[2,4,6,8,10,12,14,16,18,20,22,-1,24,26,28,30,32,34,36,38,40,-1,42,-1,-1,-1,-1,44,46,-1,-1,-1,-1,-1,-1,-1,-1,-1,-1,-1,-1,-1,-1,-1,-1,-1,-1],"split_conditions":[-1.531559E-1,-1.7350207E-1,-1.3958076E-1,-2.1634702E-1,2.4259086E0,1.8546114E0,-1.2701522E-1,-2.3177408E-1,1.9695313E0,1.7812009E0,2.5502899E0,1.5325033E-3,2.8007727E0,2.1454248E0,2.4011743E0,-2.3416048E-1,2.7037544E0,1.875872E0,2.7433681E0,1.5934284E0,-1.6150066E-1,3.9546248E-2,2.877242E0,1.2384474E-1,9.527291E-3,3.572966E-2,-9.844428E-2,-7.851734E-2,2.5876398E0,-2.8427292E-3,8.2990766E-2,-1.7685736E-2,-9.456651E-2,8.5358284E-2,3.95289E-2,-2.2473102E-2,6.52506E-2,-6.8617746E-2,2.5530616E-2,-1.2811188E-1,-3.3673994E-2,-6.6106014E-2,4.1023325E-3,-3.4417417E-2,3.0087221E-2,1.195358E-1,1.4729376E-2],"split_indices":[2,2,2,2,1,1,2,2,1,1,1,0,1,1,1,2,1,1,1,1,2,0,1,0,0,0,0,2,1,0,0,0,0,0,0,0,0,0,0,0,0,0,0,0,0,0,0],"split_type":[0,0,0,0,0,0,0,0,0,0,0,0,0,0,0,0,0,0,0,0,0,0,0,0,0,0,0,0,0,0,0,0,0,0,0,0,0,0,0,0,0,0,0,0,0,0,0],"sum_hessian":[3.0464462E2,2.6849063E2,3.6153996E1,2.516641E2,1.6826532E1,7.9058337E0,2.8248163E1,2.0922499E2,4.243911E1,8.658518E0,8.168015E0,1.4817649E0,6.424069E0,4.6778574E0,2.3570305E1,1.8898088E2,2.0244102E1,9.923108E0,3.2516E1,3.2090173E0,5.449501E0,1.9751097E0,6.192905E0,5.2037845E0,1.2202842E0,2.2243946E0,2.453463E0,1.2810802E1,1.0759502E1,1.8549884E2,3.4820487E0,1.509469E1,5.149412E0,6.442151E0,3.4809573E0,2.1606464E1,1.0909536E1,1.4664793E0,1.742538E0,3.957354E0,1.492147E0,3.719616E0,2.473289E0,7.635572E0,5.175231E0,3.4378364E0,7.321666E0],"tree_param":{"num_deleted":"0","num_feature":"3","num_nodes":"47","size_leaf_vector":"1"}},{"base_weights":[-2.9722502E-2,2.0603731E-1,-5.6839257E-2,-3.377697E-1,2.9658014E-1,-4.5771554E-1,-3.6381897E-2,9.011195E-2,-1.0430069E-1,-3.48683E-1,3.9617765E-1,4.6860766E-1,-8.3047557E-1,4.0319405E-2,-1.4441077E-1,3.516866E-2,-7.106581E-2,9.68461E-2,1.6651616E-1,1.0117811E-1,-3.707933E-2,-1.0814124E0,1.2123938E-2,1.3544514E-2,1.1305564E-1,-5.217067E-1,-5.0126232E-2,-2.5498662E-2,4.4249173E-2,-3.2170795E-2,-1.2812574E-1,3.72384E-2,-5.354631E-3,-2.0781048E-2,-8.701004E-2,-7.407507E-2,3.125439E-4],"categories":[],"categories_nodes":[],"categories_segments":[],"categories_sizes":[],"default_left":[0,0,0,0,0,0,0,0,0,0,0,0,0,0,0,0,0,0,0,0,0,0,0,0,0,0,0,0,0,0,0,0,0,0,0,0,0],"id":15,"left_children":[1,3,5,7,9,11,13,-1,-1,15,17,19,21,23,25,-1,-1,-1,27,-1,-1,29,-1,31,-1,33,35,-1,-1,-1,-1,-1,-1,-1,-1,-1,-1],"loss_changes":[1.987787E0,1.6807544E0,2.2631655E0,5.351589E0,1.9409153E0,5.020099E0,2.2064533E0,0E0,0E0,1.335671E0,3.0941305E0,2.4212294E0,2.5011373E0,4.5412316E0,3.904376E0,0E0,0E0,0E0,2.3093977E0,0E0,0E0,7.9541874E-1,0E0,3.712173E0,0E0,2.2234068E0,3.2940972E0,0E0,0E0,0E0,0E0,0E0,0E0,0E0,0E0,0E0,0E0],"parents":[2147483647,0,0,1,1,2,2,3,3,4,4,5,5,6,6,9,9,10,10,11,11,12,12,13,13,14,14,18,18,21,21,23,23,25,25,26,26],"right_children":[2,4,6,8,10,12,14,-1,-1,16,18,20,22,24,26,-1,-1,-1,28,-1,-1,30,-1,32,-1,34,36,-1,-1,-1,-1,-1,-1,-1,-1,-1,-1],"split_conditions":[-2.7635846E0,-7.093326E0,-2.2311137E0,-4.839876E-1,-4.4499457E-1,-3.6416784E-1,-2.3177408E-1,9.011195E-2,-1.0430069E-1,-4.929502E-1,-3.7141272E-1,-2.4097674E0,-1.8298747E-1,-2.3416048E-1,-2.1342659E-1,3.516866E-2,-7.106581E-2,9.68461E-2,-3.1047797E-1,1.0117811E-1,-3.707933E-2,-3.3896908E-1,1.2123938E-2,-1.2672337E0,1.1305564E-1,7.657155E-1,-1.3433547E0,-2.5498662E-2,4.4249173E-2,-3.2170795E-2,-1.2812574E-1,3.72384E-2,-5.354631E-3,-2.0781048E-2,-8.701004E-2,-7.407507E-2,3.125439E-4],"split_indices":[0,0,0,2,2,2,2,0,0,2,2,0,2,2,2,0,0,0,2,0,0,2,0,0,0,0,0,0,0,0,0,0,0,0,0,0,0],"split_type":[0,0,0,0,0,0,0,0,0,0,0,0,0,0,0,0,0,0,0,0,0,0,0,0,0,0,0,0,0,0,0,0,0,0,0,0,0],"sum_hessian":[3.08098E2,3.1100897E1,2.769971E2,4.049401E0,2.7051497E1,1.2411473E1,2.6458563E2,1.3681754E0,2.6812255E0,3.2827296E0,2.3768766E1,3.4875774E0,8.923896E0,1.550943E2,1.09491325E2,1.1282166E0,2.1545131E0,5.8856554E0,1.7883112E1,1.9927288E0,1.4948486E0,6.954056E0,1.96984E0,1.5236482E2,2.729471E0,2.0984577E1,8.850675E1,7.106014E0,1.0777098E1,1.9918578E0,4.962198E0,2.3283129E1,1.290817E2,1.1878632E1,9.105946E0,5.4116983E0,8.3095055E1],"tree_param":{"num_deleted":"0","num_feature":"3","num_nodes":"37","size_leaf_vector":"1"}},{"base_weights":[-1.562842E-2,-1.3574532E-1,4.7817048E-2,7.030816E-2,-1.5411703E-1,9.049002E-1,1.2676481E-2,-4.9469852E-1,-8.760371E-2,1.7731475E-2,1.0146786E-1,-5.804269E-2,2.3738354E-1,-3.3112466E-1,-9.794145E-1,7.070118E-1,-2.0783813E-1,2.1751886E-2,-2.2229259E-1,3.213912E-1,-6.614791E-1,5.7526298E-2,-5.4274715E-2,-1.2889302E-1,-2.0130116E-2,1.4899313E-2,9.6988656E-2,-7.448914E-2,-1.2062187E-2,2.7918238E-2,-1.2158936E-2,-7.082442E-2,-6.7729107E-3,6.180804E-2,1.4231624E-2,2.7344037E-2,-1.1154214E-1],"categories":[],"categories_nodes":[],"categories_segments":[],"categories_sizes":[],"default_left":[0,0,0,0,0,0,0,0,0,0,0,0,0,0,0,0,0,0,0,0,0,0,0,0,0,0,0,0,0,0,0,0,0,0,0,0,0],"id":16,"left_children":[1,3,5,-1,7,9,11,13,15,-1,-1,17,19,21,23,25,27,29,31,33,35,-1,-1,-1,-1,-1,-1,-1,-1,-1,-1,-1,-1,-1,-1,-1,-1],"loss_changes":[2.3313704E0,1.7373008E0,6.023202E0,0E0,2.3184187E0,4.4926357E-1,3.088512E0,1.0092072E0,8.596337E0,0E0,0E0,1.9442225E0,3.7248986E0,3.0140808E0,6.395631E-1,1.5937862E0,3.5443537E0,3.7425227E0,3.5927713E0,2.2078214E0,2.1310194E0,0E0,0E0,0E0,0E0,0E0,0E0,0E0,0E0,0E0,0E0,0E0,0E0,0E0,0E0,0E0,0E0],"parents":[2147483647,0,0,1,1,2,2,4,4,5,5,6,6,7,7,8,8,11,11,12,12,13,13,14,14,15,15,16,16,17,17,18,18,19,19,20,20],"right_children":[2,4,6,-1,8,10,12,14,16,-1,-1,18,20,22,24,26,28,30,32,34,36,-1,-1,-1,-1,-1,-1,-1,-1,-1,-1,-1,-1,-1,-1,-1,-1],"split_conditions":[-3.0679515E-1,1.5713462E0,-2.995117E-1,7.030816E-2,2.005194E0,-3.0529544E-1,2.7685397E0,1.9615728E0,2.14123E0,1.7731475E-2,1.0146786E-1,-1.8402292E-1,5.627823E0,-3.998074E-1,-3.7317657E-1,2.0577943E0,2.3308337E0,2.0710683E0,1.8546114E0,-2.3329172E-1,-2.5588393E-1,5.7526298E-2,-5.4274715E-2,-1.2889302E-1,-2.0130116E-2,1.4899313E-2,9.6988656E-2,-7.448914E-2,-1.2062187E-2,2.7918238E-2,-1.2158936E-2,-7.082442E-2,-6.7729107E-3,6.180804E-2,1.4231624E-2,2.7344037E-2,-1.1154214E-1],"split_indices":[2,1,2,0,1,2,1,1,1,0,0,2,1,2,2,1,1,1,1,2,2,0,0,0,0,0,0,0,0,0,0,0,0,0,0,0,0],"split_type":[0,0,0,0,0,0,0,0,0,0,0,0,0,0,0,0,0,0,0,0,0,0,0,0,0,0,0,0,0,0,0,0,0,0,0,0,0],"sum_hessian":[3.0406732E2,1.04702255E2,1.9936507E2,1.4452305E0,1.0325703E2,6.8772464E0,1.9248782E2,1.5818876E1,8.743815E1,1.2444612E0,5.6327853E0,1.4697421E2,4.5513615E1,1.3085972E1,2.7329044E0,1.0850193E1,7.658796E1,9.950235E1,4.7471867E1,4.221102E1,3.3025923E0,2.1517205E0,1.0934252E1,1.4855182E0,1.2473862E0,3.9762888E0,6.873904E0,9.646539E0,6.6941414E1,3.5249367E1,6.425298E1,1.0591064E1,3.6880802E1,1.4965254E1,2.7245768E1,1.209399E0,2.093193E0],"tree_param":{"num_deleted":"0","num_feature":"3","num_nodes":"37","size_leaf_vector":"1"}},{"base_weights":[2.1954197E-2,3.3117202E-1,-1.8365657E-2,5.4696214E-1,1.7103803E-1,-5.973456E-2,2.1223636E-1,4.6987787E-2,8.827235E-2,-1.342014E-1,6.4341664E-1,-3.022807E-2,-5.846185E-1,2.792734E-1,-1.2272393E-1,4.827918E-1,-1.0791564E-1,-3.5701406E-1,5.0209546E-1,1.0883641E-1,-4.8296407E-2,-4.6608424E-1,-6.9501637E-3,-1.0267E0,-2.1138337E-1,7.9102844E-2,4.6376124E-1,1.8903206E-1,-9.701272E-2,1.7465774E-2,8.988218E-2,3.2145556E-2,-7.348949E-2,5.140123E-3,8.7087676E-2,4.7164302E-2,-3.915804E-2,3.3580128E-2,-9.1506936E-2,8.1002586E-2,-2.4560585E-3,-4.5538846E-2,-1.216915E-1,1.3137408E-2,-5.87291E-2,5.185364E-2,-1.6487837E-2,7.86456E-2,1.9526243E-2,-3.9452046E-2,5.409641E-2],"categories":[],"categories_nodes":[],"categories_segments":[],"categories_sizes":[],"default_left":[0,0,0,0,0,0,0,0,0,0,0,0,0,0,0,0,0,0,0,0,0,0,0,0,0,0,0,0,0,0,0,0,0,0,0,0,0,0,0,0,0,0,0,0,0,0,0,0,0,0,0],"id":17,"left_children":[1,3,5,7,9,11,13,15,-1,17,19,21,23,25,27,29,-1,31,33,-1,35,37,39,41,43,45,47,49,-1,-1,-1,-1,-1,-1,-1,-1,-1,-1,-1,-1,-1,-1,-1,-1,-1,-1,-1,-1,-1,-1,-1],"loss_changes":[3.8233829E0,1.128694E0,2.605645E0,2.4114728E0,3.2236981E0,3.5637002E0,9.6757233E-1,3.920472E0,0E0,2.1705027E0,2.7343802E0,2.2287395E0,1.8047204E0,1.25353E0,2.1980042E0,5.717846E-1,0E0,3.053069E0,6.297412E-1,0E0,9.643947E-1,4.317444E0,3.0390933E0,2.721548E-2,1.0954295E0,2.0112946E0,1.4038813E0,1.5302173E0,0E0,0E0,0E0,0E0,0E0,0E0,0E0,0E0,0E0,0E0,0E0,0E0,0E0,0E0,0E0,0E0,0E0,0E0,0E0,0E0,0E0,0E0,0E0],"parents":[2147483647,0,0,1,1,2,2,3,3,4,4,5,5,6,6,7,7,9,9,10,10,11,11,12,12,13,13,14,14,15,15,17,17,18,18,20,20,21,21,22,22,23,23,24,24,25,25,26,26,27,27],"right_children":[2,4,6,8,10,12,14,16,-1,18,20,22,24,26,28,30,-1,32,34,-1,36,38,40,42,44,46,48,50,-1,-1,-1,-1,-1,-1,-1,-1,-1,-1,-1,-1,-1,-1,-1,-1,-1,-1,-1,-1,-1,-1,-1],"split_conditions":[-2.7635846E0,-3.6481965E-1,-1.5720528E-1,-4.4499457E-1,-2.7143615E-1,-1.7267029E-1,3.2651508E0,-4.5050362E-1,8.827235E-2,-3.048272E0,-2.1634702E-1,-2.2311137E0,-1.6616182E-1,4.4652188E-1,-6.3685276E-2,-4.666109E-1,-1.0791564E-1,-4.62129E0,-2.9833242E-1,1.0883641E-1,-4.0997944E0,-3.6416784E-1,-2.0485847E0,-1.697896E-1,8.874124E-1,-1.0878162E0,1.3213185E0,3.6591415E0,-9.701272E-2,1.7465774E-2,8.988218E-2,3.2145556E-2,-7.348949E-2,5.140123E-3,8.7087676E-2,4.7164302E-2,-3.915804E-2,3.3580128E-2,-9.1506936E-2,8.1002586E-2,-2.4560585E-3,-4.5538846E-2,-1.216915E-1,1.3137408E-2,-5.87291E-2,5.185364E-2,-1.6487837E-2,7.86456E-2,1.9526243E-2,-3.9452046E-2,5.409641E-2],"split_indices":[0,2,2,2,2,2,0,2,0,0,2,0,2,0,2,2,0,0,2,0,0,2,0,2,0,0,0,0,0,0,0,0,0,0,0,0,0,0,0,0,0,0,0,0,0,0,0,0,0,0,0],"split_type":[0,0,0,0,0,0,0,0,0,0,0,0,0,0,0,0,0,0,0,0,0,0,0,0,0,0,0,0,0,0,0,0,0,0,0,0,0,0,0,0,0,0,0,0,0,0,0,0,0,0,0],"sum_hessian":[3.0517722E2,3.437068E1,2.7080655E2,1.3612021E1,2.0758661E1,2.3024301E2,4.0563534E1,5.9266815E0,7.68534E0,1.3045126E1,7.713536E0,2.1899002E2,1.1252991E1,3.3937687E1,6.6258445E0,4.6849504E0,1.2417309E0,9.9869175E0,3.058209E0,4.3450994E0,3.3684366E0,1.0138266E1,2.0885175E2,4.3499007E0,6.90309E0,1.6962276E1,1.6975412E1,5.411796E0,1.2140484E0,3.5071714E0,1.1777792E0,3.6259649E0,6.3609524E0,1.8890041E0,1.1692048E0,1.1908518E0,2.177585E0,3.7294936E0,6.4087715E0,3.4574628E0,2.0539429E2,1.9342984E0,2.4156022E0,3.9510167E0,2.952073E0,5.6538453E0,1.1308431E1,6.8334994E0,1.0141913E1,1.9904081E0,3.4213881E0],"tree_param":{"num_deleted":"0","num_feature":"3","num_nodes":"51","size_leaf_vector":"1"}},{"base_weights":[-2.1355927E-2,1.4971071E-2,-2.9572827E-1,-8.9797564E-2,9.3550004E-2,-5.881576E-1,1.2659208E-1,3.8257543E-2,-4.471007E-1,8.884201E-1,6.72231E-2,-2.569472E-1,-1.0783495E-1,-6.2144767E-2,2.3395224E-1,3.7543618E-3,6.873965E-2,-6.610388E-1,1.4190645E-2,1.08905256E-1,1.5886681E-2,-4.3253168E-1,8.512831E-2,-4.704372E-1,5.3588843E-1,5.8066404E-1,-8.268542E-3,2.7159188E-2,-9.029021E-3,-2.2165118E-2,-8.4578834E-2,7.7758946E-2,-6.338885E-2,-3.8444772E-3,-7.463882E-2,2.8303439E-2,4.979563E-4,-6.651985E-2,2.6510254E-2,1.6197521E-2,6.702365E-2,-2.885586E-3,8.949141E-2,-3.26416E-2,2.2616869E-2],"categories":[],"categories_nodes":[],"categories_segments":[],"categories_sizes":[],"default_left":[0,0,0,0,0,0,0,0,0,0,0,0,0,0,0,0,0,0,0,0,0,0,0,0,0,0,0,0,0,0,0,0,0,0,0,0,0,0,0,0,0,0,0,0,0],"id":18,"left_children":[1,3,5,7,9,11,13,15,17,19,21,23,-1,-1,25,27,-1,29,31,-1,-1,33,35,37,39,41,43,-1,-1,-1,-1,-1,-1,-1,-1,-1,-1,-1,-1,-1,-1,-1,-1,-1,-1],"loss_changes":[3.0928326E0,2.2689288E0,4.554619E0,5.424849E0,3.233932E0,3.2317557E0,1.4034456E0,1.96679E0,3.0945349E0,5.53576E-1,1.4097257E0,2.657362E0,0E0,0E0,1.2162635E0,2.1528752E0,0E0,1.5479126E0,5.8776283E0,0E0,0E0,6.480354E-1,2.3613272E0,1.8564487E0,6.63625E-2,1.1649334E0,7.8077793E-1,0E0,0E0,0E0,0E0,0E0,0E0,0E0,0E0,0E0,0E0,0E0,0E0,0E0,0E0,0E0,0E0,0E0,0E0],"parents":[2147483647,0,0,1,1,2,2,3,3,4,4,5,5,6,6,7,7,8,8,9,9,10,10,11,11,14,14,15,15,17,17,18,18,21,21,22,22,23,23,24,24,25,25,26,26],"right_children":[2,4,6,8,10,12,14,16,18,20,22,24,-1,-1,26,28,-1,30,32,-1,-1,34,36,38,40,42,44,-1,-1,-1,-1,-1,-1,-1,-1,-1,-1,-1,-1,-1,-1,-1,-1,-1,-1],"split_conditions":[3.2651508E0,-4.796288E-1,3.0719128E0,-1.0746402E0,-4.0899622E-1,2.5307417E0,3.4925177E0,-1.1256907E0,2.6871967E0,2.5411932E0,-3.281007E-1,2.4011743E0,-1.0783495E-1,-6.2144767E-2,4.8690495E0,-3.67901E0,6.873965E-2,2.0346994E0,3.1890726E0,1.08905256E-1,1.5886681E-2,2.2393212E0,3.7819558E-1,4.8690495E0,3.708605E0,4.0837765E0,5.906688E0,2.7159188E-2,-9.029021E-3,-2.2165118E-2,-8.4578834E-2,7.7758946E-2,-6.338885E-2,-3.8444772E-3,-7.463882E-2,2.8303439E-2,4.979563E-4,-6.651985E-2,2.6510254E-2,1.6197521E-2,6.702365E-2,-2.885586E-3,8.949141E-2,-3.26416E-2,2.2616869E-2],"split_indices":[0,0,1,0,0,1,0,0,1,1,0,1,0,0,0,0,0,1,1,0,0,1,0,0,0,0,0,0,0,0,0,0,0,0,0,0,0,0,0,0,0,0,0,0,0],"split_type":[0,0,0,0,0,0,0,0,0,0,0,0,0,0,0,0,0,0,0,0,0,0,0,0,0,0,0,0,0,0,0,0,0,0,0,0,0,0,0,0,0,0,0,0,0],"sum_hessian":[3.0885922E2,2.7358228E2,3.527696E1,1.1719045E2,1.5639182E2,2.0611887E1,1.46650715E1,8.69287E1,3.0261751E1,3.9639926E0,1.5242783E2,1.32102375E1,7.40165E0,1.2396034E0,1.3425468E1,8.349646E1,3.4322393E0,2.0377867E1,9.883884E0,2.7225149E0,1.2414777E0,4.471323E0,1.479565E2,1.0728084E1,2.4821544E0,4.9470587E0,8.47841E0,2.1208126E1,6.2288334E1,6.683148E0,1.3694719E1,4.446424E0,5.437461E0,2.4799373E0,1.9913859E0,4.1918507E1,1.06037994E2,8.557738E0,2.1703448E0,1.2391181E0,1.2430363E0,1.9918463E0,2.9552124E0,3.4305623E0,5.0478473E0],"tree_param":{"num_deleted":"0","num_feature":"3","num_nodes":"45","size_leaf_vector":"1"}},{"base_weights":[1.6803466E-2,-4.1075576E-2,1.323149E-1,2.3607831E-2,-2.7242783E-1,5.3923315E-4,3.3494028E-1,-5.6159184E-3,9.030899E-1,-8.611308E-1,-7.828253E-2,5.5620775E-2,-4.5883495E-1,7.3097354E-1,8.1510834E-2,2.8827153E-2,-6.1999476E-1,1.1845058E-1,2.159499E-2,-1.0815724E-2,-9.894903E-1,5.7482824E-2,-8.820118E-1,8.874484E-2,-6.490465E-2,2.2645092E-2,-6.7762256E-1,1.2048332E-1,5.558404E-1,5.583567E-1,-1.3031264E-1,1.1674993E-3,1.0556879E-1,-9.163242E-2,4.6007317E-2,-1.1769842E-1,-1.9020895E-2,-1.2919553E-2,6.960571E-2,-9.216792E-6,-1.24317445E-1,-7.300096E-3,2.0264035E-2,-8.487412E-2,-1.7727768E-2,-2.387279E-2,7.369491E-2,-3.0529434E-2,9.87025E-2,-4.943488E-2,1.2566643E-2],"categories":[],"categories_nodes":[],"categories_segments":[],"categories_sizes":[],"default_left":[0,0,0,0,0,0,0,0,0,0,0,0,0,0,0,0,0,0,0,0,0,0,0,0,0,0,0,0,0,0,0,0,0,0,0,0,0,0,0,0,0,0,0,0,0,0,0,0,0,0,0],"id":19,"left_children":[1,3,5,7,9,11,13,15,17,19,21,23,25,27,29,31,33,-1,-1,-1,35,37,39,41,-1,-1,43,-1,45,47,49,-1,-1,-1,-1,-1,-1,-1,-1,-1,-1,-1,-1,-1,-1,-1,-1,-1,-1,-1,-1],"loss_changes":[2.0728886E0,3.1007254E0,2.7623696E0,4.181969E0,5.1054735E0,1.6371449E0,4.032273E0,3.3672812E0,7.5604343E-1,9.6815777E-1,3.8846035E0,1.4059263E0,1.1921123E0,6.401291E-1,2.6975281E0,2.6443057E0,3.1250517E0,0E0,0E0,0E0,1.1820269E0,3.7849777E0,1.6365936E0,1.0473826E0,0E0,0E0,3.2057118E-1,0E0,2.101427E0,3.330501E0,1.8143741E0,0E0,0E0,0E0,0E0,0E0,0E0,0E0,0E0,0E0,0E0,0E0,0E0,0E0,0E0,0E0,0E0,0E0,0E0,0E0,0E0],"parents":[2147483647,0,0,1,1,2,2,3,3,4,4,5,5,6,6,7,7,8,8,9,9,10,10,11,11,12,12,13,13,14,14,15,15,16,16,20,20,21,21,22,22,23,23,26,26,28,28,29,29,30,30],"right_children":[2,4,6,8,10,12,14,16,18,20,22,24,26,28,30,32,34,-1,-1,-1,36,38,40,42,-1,-1,44,-1,46,48,50,-1,-1,-1,-1,-1,-1,-1,-1,-1,-1,-1,-1,-1,-1,-1,-1,-1,-1,-1,-1],"split_conditions":[2.7433681E0,1.5706903E0,1.0021583E0,1.4516251E0,1.8978962E0,6.220182E0,3.274685E0,1.2791332E0,1.5209436E0,1.803686E0,2.5876398E0,8.563994E-1,-7.093326E0,1.4843491E0,2.3826652E0,1.2639419E0,2.473575E0,1.1845058E-1,2.159499E-2,-1.0815724E-2,2.4515986E0,2.4054735E0,2.2246287E0,-1.9035394E0,-6.490465E-2,2.2645092E-2,7.570721E0,1.2048332E-1,1.9717681E0,3.6155963E0,4.0837765E0,1.1674993E-3,1.0556879E-1,-9.163242E-2,4.6007317E-2,-1.1769842E-1,-1.9020895E-2,-1.2919553E-2,6.960571E-2,-9.216792E-6,-1.24317445E-1,-7.300096E-3,2.0264035E-2,-8.487412E-2,-1.7727768E-2,-2.387279E-2,7.369491E-2,-3.0529434E-2,9.87025E-2,-4.943488E-2,1.2566643E-2],"split_indices":[1,0,0,0,0,1,1,0,0,1,1,0,0,0,0,0,1,0,0,0,1,1,0,0,0,0,1,0,0,1,0,0,0,0,0,0,0,0,0,0,0,0,0,0,0,0,0,0,0,0,0],"split_type":[0,0,0,0,0,0,0,0,0,0,0,0,0,0,0,0,0,0,0,0,0,0,0,0,0,0,0,0,0,0,0,0,0,0,0,0,0,0,0,0,0,0,0,0,0,0,0,0,0,0,0],"sum_hessian":[3.0823557E2,2.0577353E2,1.0246205E2,1.6151404E2,4.4259495E1,6.2692913E1,3.9769135E1,1.5728145E2,4.2325907E0,1.0124296E1,3.41352E1,5.676535E1,5.9275637E0,1.4783184E1,2.4985952E1,1.4983455E2,7.446888E0,2.4892898E0,1.743301E0,1.7428898E0,8.381406E0,2.9996666E1,4.138535E0,5.5051617E1,1.7137322E0,1.4260061E0,4.5015574E0,2.402685E0,1.2380499E1,7.1820793E0,1.7803873E1,1.4836766E2,1.4668884E0,5.962587E0,1.4843011E0,6.406118E0,1.9752882E0,2.3828434E1,6.168232E0,1.493014E0,2.645521E0,2.2895794E1,3.2155823E1,2.8355002E0,1.6660571E0,2.2390575E0,1.0141441E1,2.4777956E0,4.704283E0,6.966037E0,1.0837837E1],"tree_param":{"num_deleted":"0","num_feature":"3","num_nodes":"51","size_leaf_vector":"1"}},{"base_weights":[-5.96814E-3,-5.3347737E-2,3.139548E-1,1.9472316E-1,-8.797041E-2,7.22045E-1,1.5663391E-1,2.8478834E-1,-4.6755326E-1,-2.2413245E-1,-2.6715273E-2,5.7056467E-3,9.022321E-2,-4.2033142E-1,2.8469813E-1,1.224181E-1,6.351525E-1,-1.1800212E-1,4.1916426E-2,-2.7416986E-1,6.483592E-1,9.741038E-2,-4.341181E-2,-6.1191523E-1,1.7292386E-2,-5.5739053E-2,3.8862535E-1,3.2696728E-2,-3.2526944E-2,2.0782312E-2,8.449749E-2,-2.141162E-2,-8.797974E-2,1.1122E-1,-2.9785875E-2,-1.289013E-3,-4.1093238E-2,-6.601065E-3,-8.434194E-2,9.371167E-2,2.025012E-2],"categories":[],"categories_nodes":[],"categories_segments":[],"categories_sizes":[],"default_left":[0,0,0,0,0,0,0,0,0,0,0,0,0,0,0,0,0,0,0,0,0,0,0,0,0,0,0,0,0,0,0,0,0,0,0,0,0,0,0,0,0],"id":20,"left_children":[1,3,5,7,9,11,13,15,17,19,21,-1,-1,23,25,27,29,-1,-1,31,33,-1,35,37,-1,-1,39,-1,-1,-1,-1,-1,-1,-1,-1,-1,-1,-1,-1,-1,-1],"loss_changes":[4.7596955E0,2.3652987E0,2.4875507E0,2.1489713E0,2.0007765E0,1.2658405E0,2.374296E0,1.6500096E0,3.289687E0,3.4310577E0,2.8342662E0,0E0,0E0,7.816788E-1,2.4541728E0,2.1202478E0,6.653433E-1,0E0,0E0,2.4004488E0,2.2356696E0,0E0,1.8489054E0,5.4023254E-1,0E0,0E0,2.1937544E0,0E0,0E0,0E0,0E0,0E0,0E0,0E0,0E0,0E0,0E0,0E0,0E0,0E0,0E0],"parents":[2147483647,0,0,1,1,2,2,3,3,4,4,5,5,6,6,7,7,8,8,9,9,10,10,13,13,14,14,15,15,16,16,19,19,20,20,22,22,23,23,26,26],"right_children":[2,4,6,8,10,12,14,16,18,20,22,-1,-1,24,26,28,30,-1,-1,32,34,-1,36,38,-1,-1,40,-1,-1,-1,-1,-1,-1,-1,-1,-1,-1,-1,-1,-1,-1],"split_conditions":[-1.5410669E-1,-4.1213214E-1,-1.3635707E-1,2.2852576E0,-3.1198516E-1,-8.6715263E-1,-1.2412203E-1,-4.321065E-1,3.708605E0,5.906688E0,-4.8790226E0,5.7056467E-3,9.022321E-2,2.6933985E0,-1.3433547E0,-4.5050362E-1,-1.9035394E0,-1.1800212E-1,4.1916426E-2,3.2651508E0,8.55603E0,9.741038E-2,-1.697896E-1,-8.436699E-2,1.7292386E-2,-5.5739053E-2,6.646244E-2,3.2696728E-2,-3.2526944E-2,2.0782312E-2,8.449749E-2,-2.141162E-2,-8.797974E-2,1.1122E-1,-2.9785875E-2,-1.289013E-3,-4.1093238E-2,-6.601065E-3,-8.434194E-2,9.371167E-2,2.025012E-2],"split_indices":[2,2,2,0,2,0,2,2,0,0,0,0,0,0,0,2,0,0,0,0,0,0,2,0,0,0,0,0,0,0,0,0,0,0,0,0,0,0,0,0,0],"split_type":[0,0,0,0,0,0,0,0,0,0,0,0,0,0,0,0,0,0,0,0,0,0,0,0,0,0,0,0,0,0,0,0,0,0,0,0,0,0,0,0,0],"sum_hessian":[3.1190427E2,2.7239645E2,3.950782E1,3.2795204E1,2.3960124E2,9.993935E0,2.9513885E1,2.937094E1,3.4242663E0,7.351909E1,1.6608215E2,2.411358E0,7.5825768E0,4.9464664E0,2.4567417E1,2.0991974E1,8.378965E0,1.7152815E0,1.7089847E0,7.018002E1,3.3390636E0,1.784336E0,1.642978E2,3.7152297E0,1.2312368E0,2.219583E0,2.2347836E1,1.4593728E1,6.398245E0,3.4147904E0,4.9641747E0,6.5080246E1,5.0997744E0,2.122961E0,1.2161027E0,1.5265524E2,1.16425705E1,1.4890574E0,2.2261722E0,4.6398153E0,1.770802E1],"tree_param":{"num_deleted":"0","num_feature":"3","num_nodes":"41","size_leaf_vector":"1"}},{"base_weights":[2.7768183E-2,3.2784307E-1,-1.0827788E-2,5.708725E-1,1.758105E-1,-6.262425E-1,1.0215295E-2,3.7590104E-1,9.257491E-2,-4.2601563E-2,5.9092474E-1,4.6323687E-2,-1.0477486E0,6.1784476E-1,-6.608106E-3,5.4690033E-1,6.164061E-2,1.0028196E-1,-6.4549886E-2,7.3647344E-1,8.679036E-3,-3.8705792E-2,-1.19357586E-1,8.361455E-1,-2.3233023E-2,-4.7319602E-2,2.2687654E-1,3.2248717E-2,8.4473275E-2,-3.8069587E-2,3.135871E-2,-2.6252529E-2,7.2944075E-2,-1.0644928E-2,1.0224122E-1,1.6012685E-2,1.02241814E-1,-1.0461396E-3,-5.6293976E-2,1.12382665E-1,1.4897904E-2],"categories":[],"categories_nodes":[],"categories_segments":[],"categories_sizes":[],"default_left":[0,0,0,0,0,0,0,0,0,0,0,0,0,0,0,0,0,0,0,0,0,0,0,0,0,0,0,0,0,0,0,0,0,0,0,0,0,0,0,0,0],"id":21,"left_children":[1,3,5,7,9,11,13,15,-1,17,19,-1,21,23,25,27,29,31,-1,33,-1,-1,-1,35,-1,37,39,-1,-1,-1,-1,-1,-1,-1,-1,-1,-1,-1,-1,-1,-1],"loss_changes":[3.563878E0,1.1952441E0,3.5462744E0,5.548997E-1,2.1119535E0,4.642969E0,2.715995E0,5.0935507E-1,0E0,1.4442371E0,5.232506E-1,0E0,1.9650602E-1,1.522706E0,2.4739313E0,1.5652025E-1,6.4185447E-1,3.3441262E0,0E0,1.5732675E0,0E0,0E0,0E0,5.808492E-1,0E0,4.203413E0,2.53289E0,0E0,0E0,0E0,0E0,0E0,0E0,0E0,0E0,0E0,0E0,0E0,0E0,0E0,0E0],"parents":[2147483647,0,0,1,1,2,2,3,3,4,4,5,5,6,6,7,7,9,9,10,10,12,12,13,13,14,14,15,15,16,16,17,17,19,19,23,23,25,25,26,26],"right_children":[2,4,6,8,10,12,14,16,-1,18,20,-1,22,24,26,28,30,32,-1,34,-1,-1,-1,36,-1,38,40,-1,-1,-1,-1,-1,-1,-1,-1,-1,-1,-1,-1,-1,-1],"split_conditions":[-2.7635846E0,-3.770373E-1,-2.367388E0,-4.0639016E-1,-3.2443545E0,-3.6416784E-1,-2.0485847E0,-4.5050362E-1,9.257491E-2,-3.5256388E0,-2.885845E0,4.6323687E-2,-3.3896908E-1,-1.7350207E-1,-1.5410669E-1,-4.666109E-1,-4.369471E0,-2.7426824E-1,-6.4549886E-2,-3.2834736E-1,8.679036E-3,-3.8705792E-2,-1.19357586E-1,-2.3316844E0,-2.3233023E-2,-1.7267029E-1,-1.5221235E0,3.2248717E-2,8.4473275E-2,-3.8069587E-2,3.135871E-2,-2.6252529E-2,7.2944075E-2,-1.0644928E-2,1.0224122E-1,1.6012685E-2,1.02241814E-1,-1.0461396E-3,-5.6293976E-2,1.12382665E-1,1.4897904E-2],"split_indices":[0,2,0,2,0,2,0,2,0,0,0,0,2,2,2,2,0,2,0,2,0,0,0,0,0,2,0,0,0,0,0,0,0,0,0,0,0,0,0,0,0],"split_type":[0,0,0,0,0,0,0,0,0,0,0,0,0,0,0,0,0,0,0,0,0,0,0,0,0,0,0,0,0,0,0,0,0,0,0,0,0,0,0,0,0],"sum_hessian":[3.064103E2,3.4065395E1,2.723449E2,1.2049272E1,2.2016123E1,8.0536E0,2.642913E2,9.105756E0,2.9435158E0,1.5013929E1,7.002194E0,2.2190223E0,5.834578E0,6.157802E0,2.581335E2,5.4175916E0,3.6881645E0,1.2811368E1,2.2025611E0,5.0758715E0,1.9263225E0,1.7156787E0,4.1188993E0,4.912829E0,1.244973E0,2.2048587E2,3.7647633E1,4.2774014E0,1.1401901E0,1.1529459E0,2.5352185E0,8.495269E0,4.3160996E0,1.4447103E0,3.6311612E0,1.462992E0,3.4498372E0,2.0672853E2,1.3757339E1,1.9354076E0,3.5712223E1],"tree_param":{"num_deleted":"0","num_feature":"3","num_nodes":"41","size_leaf_vector":"1"}},{"base_weights":[-3.593915E-2,-1.6178675E-1,3.369622E-2,-3.7739914E-2,-6.051866E-1,4.0444914E-1,1.1618497E-2,3.702813E-1,-1.7696838E-1,-3.7013745E-1,-8.040263E-1,5.293431E-2,5.9947765E-1,3.3643585E-1,-7.0619595E-4,-1.536385E-1,6.1252946E-1,-2.6588696E-1,3.5440946E-1,-8.040286E-1,9.4461694E-2,-1.294125E-1,-4.4427106E-1,7.5027876E-2,-3.2881021E-1,8.7994546E-1,-7.153045E-3,-2.45164E-2,6.2025064E-1,-4.2745322E-1,1.9762095E-2,2.5596065E-2,-7.411534E-2,7.07327E-2,-2.520298E-2,-1.208382E-2,-5.720116E-2,1.0183704E-1,1.3686284E-2,-9.716963E-2,-1.1520391E-2,5.6832004E-2,-4.6819147E-2,7.951337E-4,-1.1129188E-1,-6.4974345E-2,4.9579684E-3,1.1402055E-1,4.3790787E-2,-1.1609283E-2,8.712821E-2,1.0393214E-3,-1.1380742E-1,2.9125785E-2,-3.8155392E-4],"categories":[],"categories_nodes":[],"categories_segments":[],"categories_sizes":[],"default_left":[0,0,0,0,0,0,0,0,0,0,0,0,0,0,0,0,0,0,0,0,0,0,0,0,0,0,0,0,0,0,0,0,0,0,0,0,0,0,0,0,0,0,0,0,0,0,0,0,0,0,0,0,0,0,0],"id":22,"left_children":[1,3,5,7,9,11,13,15,17,19,21,23,25,27,29,31,33,35,37,39,41,-1,43,-1,45,47,-1,-1,49,51,53,-1,-1,-1,-1,-1,-1,-1,-1,-1,-1,-1,-1,-1,-1,-1,-1,-1,-1,-1,-1,-1,-1,-1,-1],"loss_changes":[2.6423986E0,5.8822517E0,1.5877038E0,4.891814E0,7.961941E-1,7.157967E-1,7.393955E-1,2.8784308E0,3.1191256E0,2.6115103E0,1.5099916E0,1.5745001E0,1.364541E0,1.2665608E0,1.5709823E0,2.0512962E0,1.4241972E0,2.3914258E0,1.2481059E0,6.513691E-1,2.124135E0,0E0,2.5313067E0,0E0,5.0808114E-1,7.047272E-2,0E0,0E0,9.922564E-1,2.5730078E0,1.0999141E0,0E0,0E0,0E0,0E0,0E0,0E0,0E0,0E0,0E0,0E0,0E0,0E0,0E0,0E0,0E0,0E0,0E0,0E0,0E0,0E0,0E0,0E0,0E0,0E0],"parents":[2147483647,0,0,1,1,2,2,3,3,4,4,5,5,6,6,7,7,8,8,9,9,10,10,11,11,12,12,13,13,14,14,15,15,16,16,17,17,18,18,19,19,20,20,22,22,24,24,25,25,28,28,29,29,30,30],"right_children":[2,4,6,8,10,12,14,16,18,20,22,24,26,28,30,32,34,36,38,40,42,-1,44,-1,46,48,-1,-1,50,52,54,-1,-1,-1,-1,-1,-1,-1,-1,-1,-1,-1,-1,-1,-1,-1,-1,-1,-1,-1,-1,-1,-1,-1,-1],"split_conditions":[-3.0529544E-1,-3.292115E-1,-2.947007E-1,-2.5105565E0,2.90283E-1,-1.2874386E0,-3.5256388E0,-5.3646297E0,-3.415076E-1,-1.8691729E0,1.0021583E0,-2.9608908E0,1.7182773E0,-2.7426824E-1,-2.367388E0,-4.028055E-1,-3.4266958E-1,1.1383753E0,-3.3896908E-1,-3.1308058E-1,-3.1788215E-1,-1.294125E-1,3.214316E0,7.5027876E-2,-2.367388E0,-3.281007E-1,-7.153045E-3,-2.45164E-2,-4.62129E0,-2.687063E0,-1.5221235E0,2.5596065E-2,-7.411534E-2,7.07327E-2,-2.520298E-2,-1.208382E-2,-5.720116E-2,1.0183704E-1,1.3686284E-2,-9.716963E-2,-1.1520391E-2,5.6832004E-2,-4.6819147E-2,7.951337E-4,-1.1129188E-1,-6.4974345E-2,4.9579684E-3,1.1402055E-1,4.3790787E-2,-1.1609283E-2,8.712821E-2,1.0393214E-3,-1.1380742E-1,2.9125785E-2,-3.8155392E-4],"split_indices":[2,2,2,0,0,0,0,0,2,0,0,0,0,2,0,2,2,0,2,2,2,0,0,0,0,0,0,0,0,0,0,0,0,0,0,0,0,0,0,0,0,0,0,0,0,0,0,0,0,0,0,0,0,0,0],"split_type":[0,0,0,0,0,0,0,0,0,0,0,0,0,0,0,0,0,0,0,0,0,0,0,0,0,0,0,0,0,0,0,0,0,0,0,0,0,0,0,0,0,0,0,0,0,0,0,0,0,0,0,0,0,0,0],"sum_hessian":[2.9990308E2,1.06360725E2,1.9354236E2,8.395761E1,2.2403112E1,9.90402E0,1.8363834E2,2.0937859E1,6.3019753E1,1.1578094E1,1.0825018E1,3.9878433E0,5.9161773E0,5.751804E0,1.7788654E2,6.735817E0,1.4202041E1,5.4413967E1,8.605783E0,5.6091237E0,5.9689703E0,3.4829366E0,7.3420815E0,1.0692382E0,2.918605E0,3.9526649E0,1.9635123E0,1.9309796E0,3.8208244E0,7.231524E0,1.70655E2,4.3013606E0,2.4344563E0,1.296258E1,1.2394613E0,3.7866634E1,1.6547333E1,1.2153443E0,7.3904395E0,4.180809E0,1.4283144E0,3.2346897E0,2.7342803E0,4.96932E0,2.3727617E0,1.1911762E0,1.7274289E0,1.4937519E0,2.4589128E0,1.1080749E0,2.7127495E0,5.0842543E0,2.1472697E0,1.2728905E1,1.579261E2],"tree_param":{"num_deleted":"0","num_feature":"3","num_nodes":"55","size_leaf_vector":"1"}},{"base_weights":[1.1926409E-2,1.8169814E-1,-4.597843E-2,2.2613403E-1,-8.923725E-2,-6.77841E-2,5.771379E-1,-6.6833146E-2,2.6141497E-1,-7.718008E-1,-4.7904592E-2,7.1984214E-1,-1.12026455E-2,2.1844058E-1,8.234303E-1,-4.0492815E-1,-9.737083E-2,2.7844107E-1,-9.0519264E-2,7.630914E-3,8.482682E-2,2.5229216E-2,-3.0793313E-2,2.0020049E-2,1.0258309E-1,-5.8209307E-2,-7.3468923E-3,-5.905031E-3,6.0321372E-2,-7.367427E-3,-8.180233E-2],"categories":[],"categories_nodes":[],"categories_segments":[],"categories_sizes":[],"default_left":[0,0,0,0,0,0,0,0,0,0,0,0,0,0,0,0,0,0,0,0,0,0,0,0,0,0,0,0,0,0,0],"id":23,"left_children":[1,3,5,7,-1,9,11,-1,13,15,17,19,-1,21,23,25,-1,27,29,-1,-1,-1,-1,-1,-1,-1,-1,-1,-1,-1,-1],"loss_changes":[3.0429385E0,3.958421E0,3.1775162E0,2.5851128E0,0E0,3.0988941E0,8.590305E-1,0E0,1.6122632E0,5.660796E-2,3.0705214E0,4.88312E-1,0E0,1.330189E0,4.1394854E-1,1.8465078E-1,0E0,2.8346627E0,2.3225403E0,0E0,0E0,0E0,0E0,0E0,0E0,0E0,0E0,0E0,0E0,0E0,0E0],"parents":[2147483647,0,0,1,1,2,2,3,3,5,5,6,6,8,8,9,9,10,10,11,11,13,13,14,14,15,15,17,17,18,18],"right_children":[2,4,6,8,-1,10,12,-1,14,16,18,20,-1,22,24,26,-1,28,30,-1,-1,-1,-1,-1,-1,-1,-1,-1,-1,-1,-1],"split_conditions":[2.067431E0,3.6591415E0,5.906688E0,1.5121976E0,-8.923725E-2,2.0940685E0,7.570721E0,-6.6833146E-2,2.05046E0,3.1221366E-1,-2.8045878E0,2.567504E0,-1.12026455E-2,2.027067E0,-4.0899622E-1,-2.7305245E0,-9.737083E-2,-4.0997944E0,5.158754E0,7.630914E-3,8.482682E-2,2.5229216E-2,-3.0793313E-2,2.0020049E-2,1.0258309E-1,-5.8209307E-2,-7.3468923E-3,-5.905031E-3,6.0321372E-2,-7.367427E-3,-8.180233E-2],"split_indices":[1,0,0,1,0,1,1,0,1,0,0,1,0,1,0,0,0,0,0,0,0,0,0,0,0,0,0,0,0,0,0],"split_type":[0,0,0,0,0,0,0,0,0,0,0,0,0,0,0,0,0,0,0,0,0,0,0,0,0,0,0,0,0,0,0],"sum_hessian":[3.076874E2,7.771022E1,2.299772E2,7.538106E1,2.3291652E0,2.2306245E2,6.91475E0,2.1795874E0,7.320147E1,5.0869865E0,2.1797546E2,5.69167E0,1.22308E0,6.929176E1,3.909708E0,2.872703E0,2.2142832E0,2.4536856E1,1.9343861E2,1.2121028E0,4.479567E0,6.559405E1,3.6977162E0,1.4460803E0,2.4636276E0,1.3793094E0,1.4933937E0,1.2434047E1,1.2102809E1,1.9013734E2,3.3012676E0],"tree_param":{"num_deleted":"0","num_feature":"3","num_nodes":"31","size_leaf_vector":"1"}},{"base_weights":[5.9258446E-2,-6.1213225E-1,6.769554E-2,-1.1831105E-2,-9.457009E-2,5.910981E-2,5.8804154E-1,1.9556755E-1,3.5828944E-2,7.592647E-2,2.8443608E-1,7.1372405E-2,1.0829597E-1,-2.4489416E-1,6.0913093E-2,5.1488854E-2,-6.736552E-3,1.8243274E-2,-3.8778886E-2,6.366215E-3,-4.088578E-2,3.600247E-2,3.0315674E-3],"categories":[],"categories_nodes":[],"categories_segments":[],"categories_sizes":[],"default_left":[0,0,0,0,0,0,0,0,0,0,0,0,0,0,0,0,0,0,0,0,0,0,0],"id":24,"left_children":[1,3,5,-1,-1,7,9,11,13,-1,15,17,-1,19,21,-1,-1,-1,-1,-1,-1,-1,-1],"loss_changes":[1.7805492E0,5.321517E-1,1.3238441E0,0E0,0E0,9.46939E-1,3.4837842E-2,4.7211933E0,1.829848E0,0E0,3.0537063E-1,2.0730307E0,0E0,1.105693E0,2.1617792E0,0E0,0E0,0E0,0E0,0E0,0E0,0E0,0E0],"parents":[2147483647,0,0,1,1,2,2,5,5,6,6,7,7,8,8,10,10,11,11,13,13,14,14],"right_children":[2,4,6,-1,-1,8,10,12,14,-1,16,18,-1,20,22,-1,-1,-1,-1,-1,-1,-1,-1],"split_conditions":[1.5121976E0,-2.5745255E-1,8.413975E0,-1.1831105E-2,-9.457009E-2,-3.8529772E-1,1.0371631E1,-3.9457327E-1,-3.5531965E-1,7.592647E-2,-4.4169632E-1,5.1796274E0,1.0829597E-1,2.2506647E0,-3.292115E-1,5.1488854E-2,-6.736552E-3,1.8243274E-2,-3.8778886E-2,6.366215E-3,-4.088578E-2,3.600247E-2,3.0315674E-3],"split_indices":[1,2,1,0,0,2,1,2,2,0,2,1,0,1,2,0,0,0,0,0,0,0,0],"split_type":[0,0,0,0,0,0,0,0,0,0,0,0,0,0,0,0,0,0,0,0,0,0,0],"sum_hessian":[3.0601437E2,2.9098222E0,3.0310455E2,1.7192681E0,1.190554E0,2.9928003E2,3.8245382E0,4.2539566E1,2.5674045E2,1.4857817E0,2.3387566E0,3.8264656E1,4.2749085E0,2.0340607E1,2.3639986E2,1.1329956E0,1.2057608E0,3.1297266E1,6.9673905E0,7.2704268E0,1.3070181E1,2.0939064E1,2.1546078E2],"tree_param":{"num_deleted":"0","num_feature":"3","num_nodes":"23","size_leaf_vector":"1"}},{"base_weights":[2.8513387E-2,2.0983537E-1,-1.3267361E-3,5.445054E-1,6.662611E-2,-3.472906E-1,1.8756295E-2,1.4463402E-1,7.062941E-1,-2.938888E-2,7.169802E-2,8.745588E-2,-6.1621547E-1,7.2185464E-2,9.729787E-3,5.8348614E-1,-6.93106E-2,9.10033E-3,8.1625E-1,8.6324304E-2,-6.181517E-1,6.625051E-2,-3.885199E-1,-1.077333E0,-8.108074E-2,-6.880425E-2,1.7921578E-2,8.054915E-2,1.6180782E-2,9.440988E-2,2.8615434E-2,-5.8084703E-3,5.3327728E-2,-1.23233736E-1,3.498744E-2,-1.205753E-3,-7.1322285E-2,-3.5923827E-2,-1.2758587E-1,-1.0426722E-1,4.604423E-2,3.0444805E-3,-4.3092087E-2],"categories":[],"categories_nodes":[],"categories_segments":[],"categories_sizes":[],"default_left":[0,0,0,0,0,0,0,0,0,0,0,0,0,0,0,0,0,0,0,0,0,0,0,0,0,0,0,0,0,0,0,0,0,0,0,0,0,0,0,0,0,0,0],"id":25,"left_children":[1,3,5,7,9,11,13,15,17,19,-1,21,23,-1,25,27,-1,-1,29,31,33,-1,35,37,39,-1,41,-1,-1,-1,-1,-1,-1,-1,-1,-1,-1,-1,-1,-1,-1,-1,-1],"loss_changes":[1.688332E0,2.077063E0,1.8747752E0,7.4370193E-1,2.0204968E0,1.7846756E0,1.6118978E0,2.2513523E0,5.3805494E-1,2.019604E0,0E0,2.0456436E0,2.2002418E0,0E0,1.457727E0,2.2911334E-1,0E0,0E0,2.4173689E-1,1.6444508E0,3.322512E0,0E0,5.05408E-1,2.3995876E-1,3.2775567E0,0E0,1.4234655E0,0E0,0E0,0E0,0E0,0E0,0E0,0E0,0E0,0E0,0E0,0E0,0E0,0E0,0E0,0E0,0E0],"parents":[2147483647,0,0,1,1,2,2,3,3,4,4,5,5,6,6,7,7,8,8,9,9,11,11,12,12,14,14,15,15,18,18,19,19,20,20,22,22,23,23,24,24,26,26],"right_children":[2,4,6,8,10,12,14,16,18,20,-1,22,24,-1,26,28,-1,-1,30,32,34,-1,36,38,40,-1,42,-1,-1,-1,-1,-1,-1,-1,-1,-1,-1,-1,-1,-1,-1,-1,-1],"split_conditions":[-3.8529772E-1,-2.6248076E0,-3.633789E-1,-5.6170406E0,-3.9457327E-1,-1.0370054E0,-3.6003453E-1,-4.593374E-1,-4.839876E-1,2.4263415E0,7.169802E-2,-3.725652E-1,-3.7478477E-1,7.2185464E-2,-3.5531965E-1,-4.929502E-1,-6.93106E-2,9.10033E-3,-4.139492E-1,5.424061E-1,4.0837765E0,6.625051E-2,-3.6481965E-1,-3.8126886E-1,-3.281007E-1,-6.880425E-2,5.360928E0,8.054915E-2,1.6180782E-2,9.440988E-2,2.8615434E-2,-5.8084703E-3,5.3327728E-2,-1.23233736E-1,3.498744E-2,-1.205753E-3,-7.1322285E-2,-3.5923827E-2,-1.2758587E-1,-1.0426722E-1,4.604423E-2,3.0444805E-3,-4.3092087E-2],"split_indices":[2,0,2,0,2,0,2,2,2,0,0,2,2,0,2,2,0,0,2,0,0,0,2,2,0,0,0,0,0,0,0,0,0,0,0,0,0,0,0,0,0,0,0],"split_type":[0,0,0,0,0,0,0,0,0,0,0,0,0,0,0,0,0,0,0,0,0,0,0,0,0,0,0,0,0,0,0,0,0,0,0,0,0,0,0,0,0,0,0],"sum_hessian":[3.1098602E2,4.309422E1,2.678918E2,1.2074586E1,3.1019634E1,1.3803892E1,2.5408792E2,4.023704E0,8.050881E0,2.7861164E1,3.1584709E0,5.533376E0,8.270515E0,2.219693E0,2.5186823E2,2.8396478E0,1.1840565E0,1.4976984E0,6.553183E0,2.3998058E1,3.863106E0,2.3284166E0,3.2049599E0,3.898251E0,4.3722644E0,1.9595919E0,2.4990863E2,1.2639822E0,1.5756655E0,4.650561E0,1.9026222E0,1.8795378E1,5.202681E0,2.1964672E0,1.6666387E0,1.9644729E0,1.2404869E0,1.4528005E0,2.4454505E0,1.241777E0,3.1304874E0,2.4403203E2,5.876607E0],"tree_param":{"num_deleted":"0","num_feature":"3","num_nodes":"43","size_leaf_vector":"1"}},{"base_weights":[-2.531287E-2,3.0178448E-2,-1.5346009E-1,-6.2772766E-2,2.5887096E-1,-2.0567313E-1,4.3974835E-1,-7.839993E-2,7.5655535E-2,1.9247783E-2,4.0243647E-1,-9.415998E-2,-4.512799E-1,7.0743716E-1,1.6203904E-1,3.130633E-2,-1.651939E-1,1.8949501E-1,-7.6553047E-1,5.0645614E-1,-3.9198697E-2,-3.9633682E-1,1.2442002E-1,-9.52736E-2,-2.6792124E-1,9.890796E-2,8.501177E-3,-1.5393919E-2,3.268829E-1,-1.1017237E-2,3.4188565E-2,-1.085466E-2,-5.0391566E-2,-4.0402147E-3,7.998381E-2,-1.1743333E-1,-2.4428993E-2,2.8502593E-2,6.725188E-2,-1.204664E-1,3.9840393E-2,-9.381362E-3,-5.2407213E-2,2.5521524E-3,6.702524E-2,-6.991771E-2,-1.0240628E-2,5.0318796E-2,3.5558452E-3],"categories":[],"categories_nodes":[],"categories_segments":[],"categories_sizes":[],"default_left":[0,0,0,0,0,0,0,0,0,0,0,0,0,0,0,0,0,0,0,0,0,0,0,0,0,0,0,0,0,0,0,0,0,0,0,0,0,0,0,0,0,0,0,0,0,0,0,0,0],"id":26,"left_children":[1,3,5,7,9,11,13,15,-1,17,19,21,23,25,27,29,31,33,35,37,39,41,43,-1,45,-1,-1,-1,47,-1,-1,-1,-1,-1,-1,-1,-1,-1,-1,-1,-1,-1,-1,-1,-1,-1,-1,-1,-1],"loss_changes":[2.1435986E0,4.4959393E0,2.9107876E0,1.988092E0,2.0940433E0,2.2683332E0,4.5666778E-1,1.4213368E0,0E0,3.3436441E0,1.7726598E0,3.9654233E0,2.1429057E0,5.498054E-1,3.1434956E-1,2.961182E0,1.5416076E0,2.9051762E0,6.647866E-1,9.4651556E-1,4.6629558E0,9.217429E-1,1.881178E0,0E0,1.3909584E0,0E0,0E0,0E0,1.6964626E-1,0E0,0E0,0E0,0E0,0E0,0E0,0E0,0E0,0E0,0E0,0E0,0E0,0E0,0E0,0E0,0E0,0E0,0E0,0E0,0E0],"parents":[2147483647,0,0,1,1,2,2,3,3,4,4,5,5,6,6,7,7,9,9,10,10,11,11,12,12,13,13,14,14,15,15,16,16,17,17,18,18,19,19,20,20,21,21,22,22,24,24,28,28],"right_children":[2,4,6,8,10,12,14,16,-1,18,20,22,24,26,28,30,32,34,36,38,40,42,44,-1,46,-1,-1,-1,48,-1,-1,-1,-1,-1,-1,-1,-1,-1,-1,-1,-1,-1,-1,-1,-1,-1,-1,-1,-1],"split_conditions":[1.2791332E0,1.4194143E-1,5.906688E0,-6.6013485E-2,-2.6983905E-1,3.2651508E0,7.833794E0,-1.5221235E0,7.5655535E-2,-2.862539E-1,-1.3635707E-1,1.8735825E0,3.573085E0,-2.8768E-1,-3.7478477E-1,-2.7143615E-1,-1.7174496E-1,9.721785E-1,5.9595007E-1,-2.1342659E-1,-1.128824E-1,-2.7832976E-1,-1.4683375E-1,-9.52736E-2,-3.091421E-1,9.890796E-2,8.501177E-3,-1.5393919E-2,-3.3719146E-1,-1.1017237E-2,3.4188565E-2,-1.085466E-2,-5.0391566E-2,-4.0402147E-3,7.998381E-2,-1.1743333E-1,-2.4428993E-2,2.8502593E-2,6.725188E-2,-1.204664E-1,3.9840393E-2,-9.381362E-3,-5.2407213E-2,2.5521524E-3,6.702524E-2,-6.991771E-2,-1.0240628E-2,5.0318796E-2,3.5558452E-3],"split_indices":[0,0,0,2,2,0,0,0,0,2,2,0,0,2,2,2,2,0,0,2,2,2,2,0,2,0,0,0,2,0,0,0,0,0,0,0,0,0,0,0,0,0,0,0,0,0,0,0,0],"split_type":[0,0,0,0,0,0,0,0,0,0,0,0,0,0,0,0,0,0,0,0,0,0,0,0,0,0,0,0,0,0,0,0,0,0,0,0,0,0,0,0,0,0,0,0,0,0,0,0,0],"sum_hessian":[2.9979453E2,2.0973703E2,9.005749E1,1.4964137E2,6.0095657E1,8.337249E1,6.6849957E0,1.4772804E2,1.9133264E0,2.2940336E1,3.7155323E1,5.8290264E1,2.5082224E1,2.6159928E0,4.0690026E0,6.553372E1,8.219432E1,1.9474203E1,3.466133E0,2.9953508E1,7.201814E0,2.4125135E1,3.416513E1,5.592265E0,1.9489958E1,1.3954774E0,1.2205155E0,1.4176861E0,2.6513166E0,4.546723E1,2.0066494E1,7.1549034E1,1.064529E1,1.4824196E1,4.650007E0,1.240368E0,2.225765E0,1.4000902E1,1.5952607E1,1.4874425E0,5.7143717E0,7.6772003E0,1.6447935E1,2.981056E1,4.3545704E0,4.5113096E0,1.4978649E1,1.1986622E0,1.4526544E0],"tree_param":{"num_deleted":"0","num_feature":"3","num_nodes":"49","size_leaf_vector":"1"}},{"base_weights":[-1.9976437E-2,-8.439009E-2,-1.2025822E-2,-1.17635556E-1,4.7153447E-2,-9.877244E-3,-5.051209E-1,6.7737097E-1,2.4790227E-2,-7.93886E-2,3.8157666E-1,-2.8056034E-1,-6.791403E-1,1.07750416E-1,-3.412686E-2,-4.7094565E-2,1.3788764E-1,3.1090183E-2,-1.695596E-2,-1.9777713E-2,5.1532377E-2,1.6083768E-2,-4.2333838E-2,-8.583936E-2,-3.7440203E-2,-2.7229637E-3,-1.0659397E-1,8.422351E-2,1.4371314E-3],"categories":[],"categories_nodes":[],"categories_segments":[],"categories_sizes":[],"default_left":[0,0,0,0,0,0,0,0,0,0,0,0,0,0,0,0,0,0,0,0,0,0,0,0,0,0,0,0,0],"id":27,"left_children":[1,-1,3,5,7,9,11,13,15,17,19,21,23,-1,-1,25,27,-1,-1,-1,-1,-1,-1,-1,-1,-1,-1,-1,-1],"loss_changes":[2.0267196E0,0E0,1.936652E0,4.640145E0,2.7840953E0,2.4265E0,7.546029E-1,3.1280851E0,1.5752639E0,2.7136624E0,1.1442369E0,8.409596E-1,3.8451672E-1,0E0,0E0,2.373804E0,6.533654E0,0E0,0E0,0E0,0E0,0E0,0E0,0E0,0E0,0E0,0E0,0E0,0E0],"parents":[2147483647,0,0,2,2,3,3,4,4,5,5,6,6,7,7,8,8,9,9,10,10,11,11,12,12,15,15,16,16],"right_children":[2,-1,4,6,8,10,12,14,16,18,20,22,24,-1,-1,26,28,-1,-1,-1,-1,-1,-1,-1,-1,-1,-1,-1,-1],"split_conditions":[1.5121976E0,-8.439009E-2,-3.0679515E-1,-3.292115E-1,-3.022372E-1,-3.415076E-1,2.5022755E0,2.821876E0,2.5022755E0,-4.593374E-1,1.9695313E0,-3.240578E-1,3.6728814E0,1.07750416E-1,-3.412686E-2,2.4966638E0,2.576381E0,3.1090183E-2,-1.695596E-2,-1.9777713E-2,5.1532377E-2,1.6083768E-2,-4.2333838E-2,-8.583936E-2,-3.7440203E-2,-2.7229637E-3,-1.0659397E-1,8.422351E-2,1.4371314E-3],"split_indices":[1,0,2,2,2,2,1,1,1,2,1,2,1,0,0,1,1,0,0,0,0,0,0,0,0,0,0,0,0],"split_type":[0,0,0,0,0,0,0,0,0,0,0,0,0,0,0,0,0,0,0,0,0,0,0,0,0,0,0,0,0],"sum_hessian":[3.0993875E2,1.9573292E0,3.079814E2,1.1024801E2,1.9773341E2,8.706189E1,2.3186117E1,5.772386E0,1.9196103E2,7.461035E1,1.2451534E1,1.1263524E1,1.1922593E1,4.1029234E0,1.6694624E0,1.1772105E2,7.423998E1,1.3543146E1,6.1067207E1,2.2455826E0,1.0205952E1,2.7219949E0,8.541529E0,6.3629518E0,5.5596414E0,1.1647677E2,1.2442794E0,1.0208361E1,6.4031624E1],"tree_param":{"num_deleted":"0","num_feature":"3","num_nodes":"29","size_leaf_vector":"1"}},{"base_weights":[-3.333069E-2,-4.268232E-2,3.2198006E-1,-3.4904886E-2,-7.351601E-2,6.580566E-1,-9.269925E-2,-4.1658364E-2,5.8719944E-2,1.7502656E-2,1.0013936E-1,-8.2286835E-2,5.5445977E-2,9.584342E-3,-1.0053809E-1,-2.7236894E-3,7.4763946E-2,-7.6039605E-2,-7.412642E-3],"categories":[],"categories_nodes":[],"categories_segments":[],"categories_sizes":[],"default_left":[0,0,0,0,0,0,0,0,0,0,0,0,0,0,0,0,0,0,0],"id":28,"left_children":[1,3,5,7,-1,9,11,13,-1,-1,-1,-1,-1,15,17,-1,-1,-1,-1],"loss_changes":[1.0127195E0,1.5567756E0,1.151814E0,1.2496157E0,0E0,5.621879E-1,2.5261054E0,8.741602E-1,0E0,0E0,0E0,0E0,0E0,4.2504187E0,2.292171E0,0E0,0E0,0E0,0E0],"parents":[2147483647,0,0,1,1,2,2,3,3,5,5,6,6,7,7,13,13,14,14],"right_children":[2,4,6,8,-1,10,12,14,-1,-1,-1,-1,-1,16,18,-1,-1,-1,-1],"split_conditions":[5.906688E0,5.360928E0,-3.3029264E-1,5.0702157E0,-7.351601E-2,-3.672437E-1,-2.5937083E-1,-2.520923E-1,5.8719944E-2,1.7502656E-2,1.0013936E-1,-8.2286835E-2,5.5445977E-2,-2.5848645E-1,-2.4979804E-1,-2.7236894E-3,7.4763946E-2,-7.6039605E-2,-7.412642E-3],"split_indices":[0,0,2,0,0,2,2,2,0,0,0,0,0,2,2,0,0,0,0],"split_type":[0,0,0,0,0,0,0,0,0,0,0,0,0,0,0,0,0,0,0],"sum_hessian":[2.996489E2,2.928218E2,6.827075E0,2.906083E2,2.2135065E0,3.4467523E0,3.3803227E0,2.884104E2,2.1979072E0,2.059328E0,1.3874242E0,1.4607246E0,1.9195981E0,1.546535E2,1.3375688E2,1.4822188E2,6.431627E0,4.078222E0,1.2967867E2],"tree_param":{"num_deleted":"0","num_feature":"3","num_nodes":"19","size_leaf_vector":"1"}},{"base_weights":[1.9900905E-2,2.087197E-1,-2.4886446E-2,9.155773E-2,6.163327E-1,-7.0693535E-1,-1.23989135E-2,1.7587891E-1,-2.9375213E-1,-6.353163E-2,8.636903E-1,1.1176042E-2,-1.05325215E-1,4.6962824E-1,-2.51759E-2,7.272494E-2,1.2632002E-1,9.870791E-3,-1.0756973E-1,1.0918226E-1,-3.848696E-2,1.0187937E-1,-2.0675172E-1,-9.552743E-2,5.9522156E-2,-5.9478324E-2,2.0164402E-2,-2.6799131E-2,2.0365696E-2,-7.612833E-2,3.8259972E-2,-5.0365343E-3,-3.7330583E-2,4.016034E-2,-1.2213172E-3],"categories":[],"categories_nodes":[],"categories_segments":[],"categories_sizes":[],"default_left":[0,0,0,0,0,0,0,0,0,0,0,0,0,0,0,0,0,0,0,0,0,0,0,0,0,0,0,0,0,0,0,0,0,0,0],"id":29,"left_children":[1,3,5,7,9,11,13,15,17,-1,19,-1,-1,21,23,-1,25,27,-1,-1,-1,-1,29,31,33,-1,-1,-1,-1,-1,-1,-1,-1,-1,-1],"loss_changes":[2.5831418E0,2.7397826E0,2.0974295E0,1.567424E0,4.5419188E0,1.3732698E0,1.5137312E0,9.7115386E-1,2.088254E0,0E0,3.6084614E0,0E0,0E0,2.5685484E0,1.4269022E0,0E0,2.1244428E0,4.4734865E-1,0E0,0E0,0E0,0E0,1.492572E0,1.6205276E0,2.6757207E0,0E0,0E0,0E0,0E0,0E0,0E0,0E0,0E0,0E0,0E0],"parents":[2147483647,0,0,1,1,2,2,3,3,4,4,5,5,6,6,7,7,8,8,10,10,13,13,14,14,16,16,17,17,22,22,23,23,24,24],"right_children":[2,4,6,8,10,12,14,16,18,-1,20,-1,-1,22,24,-1,26,28,-1,-1,-1,-1,30,32,34,-1,-1,-1,-1,-1,-1,-1,-1,-1,-1],"split_conditions":[-1.8119795E0,-2.2311137E0,-1.6719148E0,-2.6248076E0,1.9314306E0,2.1454248E0,-1.5221235E0,1.7701496E0,3.1100698E0,-6.353163E-2,3.9335449E0,1.1176042E-2,-1.05325215E-1,2.1959307E0,2.461266E0,7.272494E-2,2.0093071E0,2.1861665E0,-1.0756973E-1,1.0918226E-1,-3.848696E-2,1.0187937E-1,2.4159567E0,2.3493297E0,2.576381E0,-5.9478324E-2,2.0164402E-2,-2.6799131E-2,2.0365696E-2,-7.612833E-2,3.8259972E-2,-5.0365343E-3,-3.7330583E-2,4.016034E-2,-1.2213172E-3],"split_indices":[0,0,0,0,1,1,0,1,1,0,1,0,0,1,1,0,1,1,0,0,0,0,1,1,1,0,0,0,0,0,0,0,0,0,0],"split_type":[0,0,0,0,0,0,0,0,0,0,0,0,0,0,0,0,0,0,0,0,0,0,0,0,0,0,0,0,0,0,0,0,0,0,0],"sum_hessian":[3.0384106E2,5.7551155E1,2.462899E2,4.5653416E1,1.1897739E1,3.4283378E0,2.4286157E2,3.7902397E1,7.751019E0,1.7044872E0,1.0193253E1,1.2204566E0,2.2078812E0,5.3479495E0,2.3751361E2,1.9980888E0,3.590431E1,6.2943506E0,1.4566684E0,8.72465E0,1.4686016E0,2.6721425E0,2.675807E0,1.2967537E2,1.0783825E2,2.7434983E0,3.3160812E1,2.4288287E0,3.8655217E0,1.2283239E0,1.4474831E0,1.1255684E2,1.711853E1,1.7896683E1,8.994157E1],"tree_param":{"num_deleted":"0","num_feature":"3","num_nodes":"35","size_leaf_vector":"1"}},{"base_weights":[-4.260777E-2,-1.1126154E-1,-3.145904E-2,-4.5589647E-1,-2.5161061E-2,3.7784573E-2,-9.101753E-2,-6.259167E-3,-1.7379735E-1,-2.4680234E-2,3.3344534E-1,-1.1766125E-1,-3.8872775E-2,-1.3635851E-3,-7.135903E-2,6.255083E-2,-1.9211305E-2,-7.0358925E-2,2.3776644E-3],"categories":[],"categories_nodes":[],"categories_segments":[],"categories_sizes":[],"default_left":[0,0,0,0,0,0,0,0,0,0,0,0,0,0,0,0,0,0,0],"id":30,"left_children":[1,-1,3,5,7,-1,-1,9,11,13,15,-1,17,-1,-1,-1,-1,-1,-1],"loss_changes":[3.595643E0,0E0,7.9644513E-1,1.9955527E0,8.3861434E-1,0E0,0E0,1.6740109E0,4.5116615E0,1.9185506E0,2.2324853E0,0E0,1.2961318E0,0E0,0E0,0E0,0E0,0E0,0E0],"parents":[2147483647,0,0,2,2,3,3,4,4,7,7,8,8,9,9,10,10,12,12],"right_children":[2,-1,4,6,8,-1,-1,10,12,14,16,-1,18,-1,-1,-1,-1,-1,-1],"split_conditions":[1.5121976E0,-1.1126154E-1,-8.069411E0,-1.4744063E1,3.2651508E0,3.7784573E-2,-9.101753E-2,2.7506378E0,2.0409045E0,2.550524E0,3.0907497E0,-1.1766125E-1,3.3176897E0,-1.3635851E-3,-7.135903E-2,6.255083E-2,-1.9211305E-2,-7.0358925E-2,2.3776644E-3],"split_indices":[1,0,0,0,0,0,0,0,1,0,1,0,0,0,0,0,0,0,0],"split_type":[0,0,0,0,0,0,0,0,0,0,0,0,0,0,0,0,0,0,0],"sum_hessian":[3.0334885E2,2.109304E0,3.0123953E2,3.3607683E0,2.9787878E2,1.2446682E0,2.1161E0,2.651962E2,3.268256E1,2.5243484E2,1.276137E1,2.9602492E0,2.9722313E1,2.4945544E2,2.9793963E0,8.080629E0,4.6807404E0,1.6788603E0,2.8043451E1],"tree_param":{"num_deleted":"0","num_feature":"3","num_nodes":"19","size_leaf_vector":"1"}},{"base_weights":[2.739663E-2,-5.780348E-1,3.6243774E-2,-2.6903653E-1,-7.795286E-2,4.3452638E-1,2.1827113E-2,-3.9924674E-2,-1.0337486E-3,2.1278271E-1,1.035197E-1,-5.841004E-1,3.6572915E-2,-6.400396E-2,5.6554943E-1,-3.7673775E-2,-1.0843021E-1,1.4130238E-1,-1.58117E-2,2.3015061E-2,-2.2537947E-2,7.2430484E-2,1.1031468E-2,-7.658283E-2,4.7965113E-2,-3.317344E-2,1.940485E-2,-5.041215E-3,3.175957E-2],"categories":[],"categories_nodes":[],"categories_segments":[],"categories_sizes":[],"default_left":[0,0,0,0,0,0,0,0,0,0,0,0,0,0,0,0,0,0,0,0,0,0,0,0,0,0,0,0,0],"id":31,"left_children":[1,3,5,7,-1,9,11,-1,-1,13,-1,15,17,19,21,23,-1,25,27,-1,-1,-1,-1,-1,-1,-1,-1,-1,-1],"loss_changes":[1.669087E0,6.987023E-2,1.737248E0,1.0701685E-1,0E0,1.1881156E0,2.6538835E0,0E0,0E0,9.1317356E-1,0E0,1.8884766E0,1.585419E0,3.334185E-1,2.1283138E-1,2.0283558E0,0E0,2.4675581E0,2.2454493E0,0E0,0E0,0E0,0E0,0E0,0E0,0E0,0E0,0E0,0E0],"parents":[2147483647,0,0,1,1,2,2,3,3,5,5,6,6,9,9,11,11,12,12,13,13,14,14,15,15,17,17,18,18],"right_children":[2,4,6,8,-1,10,12,-1,-1,14,-1,16,18,20,22,24,-1,26,28,-1,-1,-1,-1,-1,-1,-1,-1,-1,-1],"split_conditions":[-5.0933605E-1,5.072753E0,-4.5050362E-1,2.7946994E0,-7.795286E-2,5.4365926E0,-4.321065E-1,-3.9924674E-2,-1.0337486E-3,-4.701512E-1,1.035197E-1,3.274685E0,2.163507E0,-4.929502E-1,3.867893E0,1.9789376E0,-1.0843021E-1,-3.6481965E-1,-1.2956876E-1,2.3015061E-2,-2.2537947E-2,7.2430484E-2,1.1031468E-2,-7.658283E-2,4.7965113E-2,-3.317344E-2,1.940485E-2,-5.041215E-3,3.175957E-2],"split_indices":[2,1,2,1,0,1,2,0,0,2,0,1,1,2,1,1,0,2,2,0,0,0,0,0,0,0,0,0,0],"split_type":[0,0,0,0,0,0,0,0,0,0,0,0,0,0,0,0,0,0,0,0,0,0,0,0,0,0,0,0,0],"sum_hessian":[3.066985E2,3.4906266E0,3.0320786E2,2.2994869E0,1.1911397E0,9.573884E0,2.9363397E2,1.1682092E0,1.1312777E0,7.981627E0,1.5922565E0,6.0587654E0,2.875752E2,4.9311385E0,3.0504885E0,3.4095004E0,2.6492648E0,9.531673E1,1.9225847E2,1.5959208E0,3.335218E0,1.8235117E0,1.2269768E0,1.2166529E0,2.1928475E0,9.031488E0,8.628524E1,1.7495114E2,1.7307333E1],"tree_param":{"num_deleted":"0","num_feature":"3","num_nodes":"29","size_leaf_vector":"1"}},{"base_weights":[3.5859156E-2,-2.9606791E-2,1.9960502E-1,7.225969E-3,-4.703296E-1,1.1238949E-1,4.7530833E-1,-5.267507E-3,1.1174536E-1,-1.510057E-1,-6.471855E-1,1.989475E-1,-3.3839428E-1,2.6332906E-1,9.036143E-1,-7.943162E-2,6.347107E-3,-3.9971033E-1,5.0101735E-2,-1.0200156E-1,-2.4919711E-1,2.6979696E-2,4.736364E-1,-1.0137854E-1,-3.9788924E-2,5.247187E-1,-1.1421688E-1,1.111444E-1,-1.1035659E-3,-7.4784206E-3,1.0542442E-2,-6.654482E-2,9.208342E-3,3.0751968E-2,-8.1030756E-2,3.0758737E-2,-1.7503513E-2,6.7830906E-4,6.4792916E-2,1.9417904E-2,-8.172234E-2,1.3826846E-2,6.414991E-2],"categories":[],"categories_nodes":[],"categories_segments":[],"categories_sizes":[],"default_left":[0,0,0,0,0,0,0,0,0,0,0,0,0,0,0,0,0,0,0,0,0,0,0,0,0,0,0,0,0,0,0,0,0,0,0,0,0,0,0,0,0,0,0],"id":32,"left_children":[1,3,5,7,9,11,13,15,-1,17,19,21,23,25,27,-1,29,31,-1,-1,33,35,37,-1,39,41,-1,-1,-1,-1,-1,-1,-1,-1,-1,-1,-1,-1,-1,-1,-1,-1,-1],"loss_changes":[3.2460687E0,3.5227418E0,2.02553E0,2.7947752E0,8.4745383E-1,2.6812346E0,1.6203628E0,1.8363155E0,0E0,1.3791434E0,1.2988849E0,2.671705E0,2.2106628E0,6.147816E0,1.2221985E0,0E0,1.5987871E0,8.217184E-1,0E0,0E0,2.2439883E0,2.095123E0,1.7710414E0,0E0,1.7558123E0,5.169282E-1,0E0,0E0,0E0,0E0,0E0,0E0,0E0,0E0,0E0,0E0,0E0,0E0,0E0,0E0,0E0,0E0,0E0],"parents":[2147483647,0,0,1,1,2,2,3,3,4,4,5,5,6,6,7,7,9,9,10,10,11,11,12,12,13,13,14,14,16,16,17,17,20,20,21,21,22,22,24,24,25,25],"right_children":[2,4,6,8,10,12,14,16,-1,18,20,22,24,26,28,-1,30,32,-1,-1,34,36,38,-1,40,42,-1,-1,-1,-1,-1,-1,-1,-1,-1,-1,-1,-1,-1,-1,-1,-1,-1],"split_conditions":[-2.0954223E-1,-2.2290213E-1,2.7685397E0,-2.2357477E-1,2.1454248E0,2.5876398E0,-1.4545996E-1,1.5401775E0,1.1174536E-1,2.080248E0,2.4515986E0,2.2280731E0,2.62366E0,-1.5410669E-1,3.387178E0,-7.943162E-2,-3.0679515E-1,-2.1531573E-1,5.0101735E-2,-1.0200156E-1,2.8562462E0,-1.7267029E-1,-1.8298747E-1,-1.0137854E-1,-1.1612577E-1,2.9473517E0,-1.1421688E-1,1.111444E-1,-1.1035659E-3,-7.4784206E-3,1.0542442E-2,-6.654482E-2,9.208342E-3,3.0751968E-2,-8.1030756E-2,3.0758737E-2,-1.7503513E-2,6.7830906E-4,6.4792916E-2,1.9417904E-2,-8.172234E-2,1.3826846E-2,6.414991E-2],"split_indices":[2,2,1,2,1,1,2,1,0,1,1,1,1,2,1,0,2,2,0,0,1,2,2,0,2,1,0,0,0,0,0,0,0,0,0,0,0,0,0,0,0,0,0],"split_type":[0,0,0,0,0,0,0,0,0,0,0,0,0,0,0,0,0,0,0,0,0,0,0,0,0,0,0,0,0,0,0,0,0,0,0,0,0,0,0,0,0,0,0],"sum_hessian":[3.0125986E2,2.1580125E2,8.545861E1,2.0006474E2,1.5736511E1,6.599083E1,1.9467785E1,1.9882263E2,1.2421107E0,6.2698154E0,9.466696E0,5.5829327E1,1.0161501E1,1.4102781E1,5.365003E0,1.906602E0,1.9691603E2,4.8187447E0,1.4510707E0,4.080867E0,5.385829E0,3.5009808E1,2.081952E1,2.3810136E0,7.780487E0,1.2419679E1,1.6831023E0,4.196339E0,1.1686639E0,1.0839772E2,8.851831E1,2.8991182E0,1.9196266E0,2.9303596E0,2.4554694E0,1.4435563E1,2.0574244E1,5.9421215E0,1.48774E1,6.5573053E0,1.223182E0,3.3889496E0,9.030729E0],"tree_param":{"num_deleted":"0","num_feature":"3","num_nodes":"43","size_leaf_vector":"1"}},{"base_weights":[-2.5857646E-2,1.4432909E-1,-4.971824E-2,-3.856697E-1,2.0698133E-1,-5.38873E-1,-3.0397834E-2,2.4731876E-2,-6.518438E-2,9.6722096E-2,3.9032838E-1,-2.2753096E-1,-1.1382174E-1,-3.5933027E-1,-1.1834521E-2,3.043382E-1,-6.7147875E-1,5.738935E-1,-2.8969386E-1,3.0156592E-2,-3.906227E-1,-8.190171E-1,-2.5020638E-2,1.7861992E-1,-5.0441504E-2,1.7100655E-2,8.729397E-2,-2.0718424E-2,-1.0361632E-1,2.0387543E-2,1.052436E-1,-8.828827E-2,4.3913346E-2,-5.945794E-2,1.9019937E-2,-1.227512E-2,-9.7103834E-2,3.656989E-2,-7.2536506E-2,3.9423283E-2,-2.6723845E-2,-8.831455E-2,-3.9023224E-3],"categories":[],"categories_nodes":[],"categories_segments":[],"categories_sizes":[],"default_left":[0,0,0,0,0,0,0,0,0,0,0,0,0,0,0,0,0,0,0,0,0,0,0,0,0,0,0,0,0,0,0,0,0,0,0,0,0,0,0,0,0,0,0],"id":33,"left_children":[1,3,5,7,9,11,13,-1,-1,15,17,19,-1,21,23,25,27,29,31,-1,33,35,37,39,41,-1,-1,-1,-1,-1,-1,-1,-1,-1,-1,-1,-1,-1,-1,-1,-1,-1,-1],"loss_changes":[1.2506176E0,1.3386037E0,2.5286922E0,8.952623E-1,6.6073585E-1,1.6392715E0,1.5841092E0,0E0,0E0,3.8576295E0,1.744828E0,8.03365E-1,0E0,2.1097965E0,1.8271251E0,1.2699696E0,6.6331315E-1,1.6080754E0,1.8371341E0,0E0,8.841056E-1,4.9525356E-1,2.7436047E0,4.132884E0,1.9277174E0,0E0,0E0,0E0,0E0,0E0,0E0,0E0,0E0,0E0,0E0,0E0,0E0,0E0,0E0,0E0,0E0,0E0,0E0],"parents":[2147483647,0,0,1,1,2,2,3,3,4,4,5,5,6,6,9,9,10,10,11,11,13,13,14,14,15,15,16,16,17,17,18,18,20,20,21,21,22,22,23,23,24,24],"right_children":[2,4,6,8,10,12,14,-1,-1,16,18,20,-1,22,24,26,28,30,32,-1,34,36,38,40,42,-1,-1,-1,-1,-1,-1,-1,-1,-1,-1,-1,-1,-1,-1,-1,-1,-1,-1],"split_conditions":[-2.687063E0,-8.069411E0,-2.2311137E0,-1.4744063E1,3.365776E0,-2.3316844E0,1.6956118E0,2.4731876E-2,-6.518438E-2,2.7817793E0,-3.048272E0,2.062771E0,-1.1382174E-1,-3.281007E-1,-9.995635E-1,2.6309104E0,3.0719128E0,-3.9102767E0,-2.885845E0,3.0156592E-2,-2.367388E0,-1.3433547E0,1.6516576E0,2.62366E0,-9.435316E-1,1.7100655E-2,8.729397E-2,-2.0718424E-2,-1.0361632E-1,2.0387543E-2,1.052436E-1,-8.828827E-2,4.3913346E-2,-5.945794E-2,1.9019937E-2,-1.227512E-2,-9.7103834E-2,3.656989E-2,-7.2536506E-2,3.9423283E-2,-2.6723845E-2,-8.831455E-2,-3.9023224E-3],"split_indices":[0,0,0,0,1,0,1,0,0,1,0,1,0,0,0,1,1,0,0,0,0,0,1,1,0,0,0,0,0,0,0,0,0,0,0,0,0,0,0,0,0,0,0],"split_type":[0,0,0,0,0,0,0,0,0,0,0,0,0,0,0,0,0,0,0,0,0,0,0,0,0,0,0,0,0,0,0,0,0,0,0,0,0,0,0,0,0,0,0],"sum_hessian":[3.052094E2,3.6908566E1,2.6830084E2,3.3567595E0,3.3551807E1,9.172775E0,2.5912808E2,1.0146526E0,2.342107E0,2.1905846E1,1.1645962E1,6.9447904E0,2.2279844E0,1.2862054E1,2.4626602E2,1.7720488E1,4.1853576E0,9.293376E0,2.3525858E0,1.4362614E0,5.508529E0,4.8050604E0,8.0569935E0,4.089547E1,2.0537056E2,1.5408169E1,2.3123193E0,2.5310695E0,1.654288E0,6.045171E0,3.248205E0,1.1804495E0,1.1721361E0,4.0593834E0,1.4491457E0,1.1850276E0,3.6200328E0,5.478429E0,2.578565E0,2.7643246E1,1.3252226E1,1.7453054E0,2.0362524E2],"tree_param":{"num_deleted":"0","num_feature":"3","num_nodes":"43","size_leaf_vector":"1"}},{"base_weights":[5.972182E-3,-2.997971E-2,2.1047083E-1,-5.0281817E-3,-7.6210374E-1,2.8032267E-1,-2.162642E-1,2.0931216E-1,-5.0507303E-2,-1.1658373E-1,-9.428594E-2,-1.09216854E-1,3.7700716E-1,8.978573E-2,-6.5018076E-1,1.3687944E-1,7.863173E-2,-4.0450835E-1,-2.0079518E-2,4.790237E-2,-6.342647E-2,1.9770192E-1,-6.265711E-1,1.7261256E-1,7.2315425E-1,-1.0894352E-1,-1.0798275E-1,1.971366E-2,-3.0494977E-2,-3.397035E-3,-6.0384143E-2,-1.6353132E-2,5.9871464E-3,5.923298E-2,-7.674644E-2,-1.06255464E-1,9.518342E-3,2.5694266E-2,-6.605237E-2,-1.9587746E-2,8.741559E-2,5.227871E-2,-6.503412E-2],"categories":[],"categories_nodes":[],"categories_segments":[],"categories_sizes":[],"default_left":[0,0,0,0,0,0,0,0,0,0,0,0,0,0,0,0,0,0,0,0,0,0,0,0,0,0,0,0,0,0,0,0,0,0,0,0,0,0,0,0,0,0,0],"id":34,"left_children":[1,3,5,7,9,11,13,15,17,-1,19,21,23,-1,25,27,-1,29,31,-1,-1,33,35,37,39,-1,41,-1,-1,-1,-1,-1,-1,-1,-1,-1,-1,-1,-1,-1,-1,-1,-1],"loss_changes":[2.2325246E0,4.716527E0,1.4138839E0,2.4562576E0,2.1844568E0,1.5268986E0,3.9438815E0,1.7359307E0,2.2299745E0,0E0,1.63321E0,1.4925437E0,2.127081E0,0E0,1.2118456E0,1.1357455E0,0E0,1.1903338E0,2.2162921E0,0E0,0E0,2.8047202E0,1.1865597E0,1.6680166E0,1.7675958E0,0E0,1.5744327E0,0E0,0E0,0E0,0E0,0E0,0E0,0E0,0E0,0E0,0E0,0E0,0E0,0E0,0E0,0E0,0E0],"parents":[2147483647,0,0,1,1,2,2,3,3,4,4,5,5,6,6,7,7,8,8,10,10,11,11,12,12,14,14,15,15,17,17,18,18,21,21,22,22,23,23,24,24,26,26],"right_children":[2,4,6,8,10,12,14,16,18,-1,20,22,24,-1,26,28,-1,30,32,-1,-1,34,36,38,40,-1,42,-1,-1,-1,-1,-1,-1,-1,-1,-1,-1,-1,-1,-1,-1,-1,-1],"split_conditions":[-1.6150066E-1,-1.7267029E-1,-6.3685276E-2,-3.8529772E-1,1.596723E0,-8.373667E-1,3.651602E-2,-3.9457327E-1,-3.633789E-1,-1.1658373E-1,2.550524E0,-1.2516402E0,-1.128824E-1,8.978573E-2,1.4104687E0,2.4263415E0,7.863173E-2,-1.0370054E0,-4.796288E-1,4.790237E-2,-6.342647E-2,-1.0142129E-1,-1.2956876E-1,-1.1612577E-1,3.651602E-2,-1.0894352E-1,2.8876107E0,1.971366E-2,-3.0494977E-2,-3.397035E-3,-6.0384143E-2,-1.6353132E-2,5.9871464E-3,5.923298E-2,-7.674644E-2,-1.06255464E-1,9.518342E-3,2.5694266E-2,-6.605237E-2,-1.9587746E-2,8.741559E-2,5.227871E-2,-6.503412E-2],"split_indices":[2,2,2,2,0,0,0,2,2,0,0,0,2,0,0,0,0,0,0,0,0,2,2,2,0,0,0,0,0,0,0,0,0,0,0,0,0,0,0,0,0,0,0],"split_type":[0,0,0,0,0,0,0,0,0,0,0,0,0,0,0,0,0,0,0,0,0,0,0,0,0,0,0,0,0,0,0,0,0,0,0,0,0,0,0,0,0,0,0],"sum_hessian":[3.017993E2,2.5740042E2,4.4398888E1,2.4989075E2,7.509661E0,3.8448406E1,5.9504833E0,4.3110622E1,2.0678012E2,4.215445E0,3.2942162E0,7.619599E0,3.0828808E1,1.3682302E0,4.582253E0,3.940167E1,3.7089539E0,1.5393697E1,1.9138643E2,1.6525474E0,1.6416688E0,5.1702337E0,2.449365E0,2.032555E1,1.0503258E1,1.9738616E0,2.6083913E0,3.5160286E1,4.2413816E0,5.793901E0,9.599796E0,6.8118904E1,1.23267525E2,3.9439588E0,1.2262752E0,1.2326107E0,1.2167542E0,1.9085327E1,1.2402217E0,1.4402665E0,9.062991E0,1.2225896E0,1.3858017E0],"tree_param":{"num_deleted":"0","num_feature":"3","num_nodes":"43","size_leaf_vector":"1"}},{"base_weights":[4.3052174E-2,1.8681106E-1,-7.422111E-3,9.2634514E-2,7.110125E-1,-1.3985276E-1,6.417974E-2,1.4750652E-1,-1.0374248E-1,8.946107E-1,2.5579607E-1,-1.8167183E-2,-4.7264314E-1,4.1776195E-1,5.1627047E-3,1.9592825E-1,-3.7332433E-1,7.270516E-3,1.02178834E-1,-2.1457601E-2,8.103481E-2,-7.461187E-2,7.200263E-1,-1.5507784E-1,-8.5389626E-1,2.0752268E-1,9.548599E-2,-3.284183E-1,7.098234E-2,-3.9781082E-2,2.298749E-2,-1.8969098E-2,-6.0835686E-2,4.480722E-2,-1.50499735E-2,8.307443E-3,9.3743734E-2,-3.9682347E-2,5.8410365E-2,-1.2138952E-1,-3.3166315E-2,4.0262606E-2,-3.595636E-2,3.1142095E-3,-6.997832E-2,-1.7225098E-2,1.7793523E-2],"categories":[],"categories_nodes":[],"categories_segments":[],"categories_sizes":[],"default_left":[0,0,0,0,0,0,0,0,0,0,0,0,0,0,0,0,0,0,0,0,0,0,0,0,0,0,0,0,0,0,0,0,0,0,0,0,0,0,0,0,0,0,0,0,0,0,0],"id":35,"left_children":[1,3,5,7,9,11,13,15,-1,17,19,21,23,25,27,29,31,-1,-1,-1,-1,33,35,37,39,41,-1,43,45,-1,-1,-1,-1,-1,-1,-1,-1,-1,-1,-1,-1,-1,-1,-1,-1,-1,-1],"loss_changes":[2.2608862E0,3.9308221E0,2.203498E0,4.4798717E0,7.891097E-1,3.2931376E0,3.1467617E0,1.7735045E0,0E0,7.9108E-1,1.4522717E0,2.5846758E0,2.5057902E0,2.2377374E0,2.8848498E0,1.3480003E0,1.4697981E-1,0E0,0E0,0E0,0E0,2.3415976E0,5.326178E-1,2.5744643E0,1.4173236E0,2.0014386E0,0E0,2.9134107E0,2.883764E0,0E0,0E0,0E0,0E0,0E0,0E0,0E0,0E0,0E0,0E0,0E0,0E0,0E0,0E0,0E0,0E0,0E0,0E0],"parents":[2147483647,0,0,1,1,2,2,3,3,4,4,5,5,6,6,7,7,9,9,10,10,11,11,12,12,13,13,14,14,15,15,16,16,21,21,22,22,23,23,24,24,25,25,27,27,28,28],"right_children":[2,4,6,8,10,12,14,16,-1,18,20,22,24,26,28,30,32,-1,-1,-1,-1,34,36,38,40,42,-1,44,46,-1,-1,-1,-1,-1,-1,-1,-1,-1,-1,-1,-1,-1,-1,-1,-1,-1,-1],"split_conditions":[2.067431E0,2.005194E0,2.4292655E0,3.4925177E0,1.0929127E0,1.2791332E0,2.5454407E0,1.9859914E0,-1.0374248E-1,-1.9035394E0,2.2246287E0,1.0021583E0,2.2861142E0,2.519539E0,2.6777263E0,1.5121976E0,1.2791332E0,7.270516E-3,1.02178834E-1,-2.1457601E-2,8.103481E-2,-2.7635846E0,2.2784536E0,2.2164788E0,1.9269886E0,2.4966638E0,9.548599E-2,6.184318E-1,-1.1479657E0,-3.9781082E-2,2.298749E-2,-1.8969098E-2,-6.0835686E-2,4.480722E-2,-1.50499735E-2,8.307443E-3,9.3743734E-2,-3.9682347E-2,5.8410365E-2,-1.2138952E-1,-3.3166315E-2,4.0262606E-2,-3.595636E-2,3.1142095E-3,-6.997832E-2,-1.7225098E-2,1.7793523E-2],"split_indices":[1,1,1,0,0,0,1,1,0,0,0,0,1,1,1,1,0,0,0,0,0,0,1,1,0,1,0,0,0,0,0,0,0,0,0,0,0,0,0,0,0,0,0,0,0,0,0],"split_type":[0,0,0,0,0,0,0,0,0,0,0,0,0,0,0,0,0,0,0,0,0,0,0,0,0,0,0,0,0,0,0,0,0,0,0,0,0,0,0,0,0,0,0,0,0,0,0],"sum_hessian":[3.1039194E2,7.9957886E1,2.3043404E2,6.877812E1,1.1179767E1,8.053253E1,1.499015E2,6.642234E1,2.3557825E0,7.278824E0,3.900943E0,5.9742233E1,2.0790295E1,2.0572016E1,1.293295E2,6.134308E1,5.079259E0,1.1859727E0,6.092851E0,2.4423778E0,1.4585652E0,5.6333702E1,3.4085329E0,1.2110007E1,8.680288E0,1.5781105E1,4.7909093E0,2.0655502E1,1.08673996E2,2.737881E0,5.8605198E1,3.8658857E0,1.2133733E0,6.520284E0,4.9813416E1,1.2190816E0,2.1894512E0,9.474559E0,2.6354487E0,4.3542643E0,4.3260236E0,1.1957272E1,3.8238337E0,1.0960012E1,9.69549E0,3.300444E1,7.5669556E1],"tree_param":{"num_deleted":"0","num_feature":"3","num_nodes":"47","size_leaf_vector":"1"}},{"base_weights":[2.0847313E-2,-5.9459694E-2,2.841539E-2,3.365141E-1,1.9964378E-2,3.9702974E-2,5.3463495E-1,-2.6606306E-1,3.8031634E-2,4.242626E-2,-5.2511077E-2,1.4873998E-2,7.742105E-2,-7.6165825E-2,-1.1632153E-1,4.321047E-2,-4.6628486E-2,9.903198E-3,-6.8959385E-2,3.6800832E-3,7.260372E-2],"categories":[],"categories_nodes":[],"categories_segments":[],"categories_sizes":[],"default_left":[0,0,0,0,0,0,0,0,0,0,0,0,0,0,0,0,0,0,0,0,0],"id":36,"left_children":[1,-1,3,5,7,9,11,13,15,-1,-1,-1,-1,17,-1,19,-1,-1,-1,-1,-1],"loss_changes":[1.4147252E0,0E0,7.676836E-1,4.4198728E-1,1.5115577E0,1.1423097E0,3.1416225E-1,2.8735805E0,7.361767E-1,0E0,0E0,0E0,0E0,1.7254745E0,0E0,1.164973E0,0E0,0E0,0E0,0E0,0E0],"parents":[2147483647,0,0,2,2,3,3,4,4,5,5,6,6,7,7,8,8,13,13,15,15],"right_children":[2,-1,4,6,8,10,12,14,16,-1,-1,-1,-1,18,-1,20,-1,-1,-1,-1,-1],"split_conditions":[1.5121976E0,-5.9459694E-2,-5.6170406E0,-8.069411E0,-3.2443545E0,-1.0233345E1,3.0719128E0,-3.5256388E0,1.0371631E1,4.242626E-2,-5.2511077E-2,1.4873998E-2,7.742105E-2,5.1796274E0,-1.1632153E-1,8.413975E0,-4.6628486E-2,9.903198E-3,-6.8959385E-2,3.6800832E-3,7.260372E-2],"split_indices":[1,0,0,0,0,0,1,0,1,0,0,0,0,1,0,1,0,0,0,0,0],"split_type":[0,0,0,0,0,0,0,0,0,0,0,0,0,0,0,0,0,0,0,0,0],"sum_hessian":[2.9910965E2,2.6912086E0,2.9641846E2,6.8771896E0,2.8954126E2,3.2334511E0,3.6437385E0,1.6387068E1,2.731542E2,2.0717337E0,1.1617174E0,2.0165076E0,1.6272308E0,1.4419778E1,1.9672892E0,2.712827E2,1.871488E0,1.1868609E1,2.5511684E0,2.69804E2,1.4787323E0],"tree_param":{"num_deleted":"0","num_feature":"3","num_nodes":"21","size_leaf_vector":"1"}},{"base_weights":[-1.2741863E-3,-6.7506455E-2,5.3896876E-3,2.707622E-1,-2.281111E-2,4.1339162E-1,-8.838195E-2,8.843513E-2,-6.520911E-2,1.52418E-1,8.4056365E-1,-5.068887E-1,4.3150076E-1,4.2685427E-2,9.119528E-2,-7.770153E-1,-3.074465E-2,4.1044015E-2,-1.2612064E-1,4.3719795E-2,1.2764405E-1,-7.237739E-2,1.6693614E-2,8.540345E-2,-9.299163E-3,-4.9008885E-3,3.1010244E-2,-2.4141865E-2,-1.0981702E-1,5.4364526E-3,-1.0884531E-2],"categories":[],"categories_nodes":[],"categories_segments":[],"categories_sizes":[],"default_left":[0,0,0,0,0,0,0,0,0,0,0,0,0,0,0,0,0,0,0,0,0,0,0,0,0,0,0,0,0,0,0],"id":37,"left_children":[1,-1,3,5,7,9,11,13,15,17,19,21,23,25,-1,27,29,-1,-1,-1,-1,-1,-1,-1,-1,-1,-1,-1,-1,-1,-1],"loss_changes":[1.3613803E0,0E0,2.2544305E0,1.5187764E0,1.2909665E0,2.2003977E0,2.1875486E0,2.809956E0,4.8301964E0,5.692442E0,7.957039E-1,9.206785E-1,1.0935025E0,1.7974885E0,0E0,1.2996101E0,1.2673382E0,0E0,0E0,0E0,0E0,0E0,0E0,0E0,0E0,0E0,0E0,0E0,0E0,0E0,0E0],"parents":[2147483647,0,0,2,2,3,3,4,4,5,5,6,6,7,7,8,8,9,9,10,10,11,11,12,12,13,13,15,15,16,16],